#include "spdk_internal/log.h"
#include <stdio.h>
#include <stdlib.h>
#include <string.h>
#include <time.h>
#include <unistd.h>
#include <math.h>


#define MAX(a,b) (((a)>(b))?(a):(b))
#define MIN(a,b) (((a)<(b))?(a):(b))
#define SIGN(a) (a > 0) ? 1 : ((a < 0) ? -1 : 0)
#define ABS(a) ((a >= 0) ? a : -a)

#define bw_scale 0.0103114977994279
#define buff_scale 0.0298256236561768
#define remaining_bytes_scale 0.0308507664021431
#define core_scale 2.0
#define period_scale 0.0000888888888889

#define bw_min -1.0
#define buff_min -1.0
#define remaining_bytes_min -1.0
#define core_min -1.0
#define period_min -1.2222222222222223

#define action_mean -0.3415848648648650
#define action_scale 242.4985661211362924

#define input_dim 6
#define h1_dim 32
#define h2_dim 32
#define h3_dim 16
#define output_dim 1
#define state_window 25

#define MAX_PERIOD 25000
#define MIN_PERIOD 5000

#define mlp_scale 3.0

double prev_action = 0;

double state_history[input_dim*state_window];


void roll(double *state_hist, double *new_state)
{
    double tmp[input_dim*state_window];
    for (int i = 0; i < input_dim*state_window; i++)
        tmp[i] = state_hist[i];
    for (int i = input_dim; i < input_dim*state_window; i++)
        state_hist[i-input_dim] = tmp[i];
    for (int i = 0; i < input_dim; i++)
        state_hist[input_dim*state_window - input_dim + i] = new_state[i];
}



void mat_vec_mult(const double *mat1, const double *vec, double *output, const int M, const int N)
{
    /**
     * @brief Matrix multiplication of mat1 MxN with vector N resulting in vector M
     * pointer notation A[i, j] with N columns is accesed as A[i*N + j]
     */
    int i,j, row;
    double sum_;
    for (i = 0; i < M; i++)
    {
        sum_ = 0.0;
        row = i*N;
        for (j = 0; j < N; j++)
            sum_ += mat1[row + j] * vec[j];
        output[i] = sum_;
    }
}

void _vec_addition(double *vec1, const double *vec2, const int size)
{
    /**
     * @brief In place element-wise addition between vectors
     *
     */
    int i;
    for (i = 0; i < size; i++)
        vec1[i] += vec2[i];
}

double dot(const double *mat1, const double *vec, const int N)
{
    /**
     * @brief Dot product of two floats
     *
     */
    int j;
    double sum_ = 0.0;
    for (j = 0; j < N; j++)
        sum_ += mat1[j] * vec[j];
    return sum_;
}

void relu(double *vec, const int size)
{
    /**
     * @brief ReLU activation function f(x) = max(0, x)
     *
     */
    int i;
    for (i = 0; i < size ; i++)
        vec[i] = MAX(0, vec[i]);
}

double mlp(double *input)
{
    double input_weights[input_dim*state_window*h1_dim] = {0.1126483827829361,-0.0876965224742889,-0.0153465177863836,0.0078674955293536,-0.0577139668166637,-0.0309703070670366,0.1129580065608025,0.0471842810511589,0.0935768932104111,0.0532418526709080,-0.0079421168193221,0.0289797186851501,0.0816253274679184,0.0402543805539608,-0.0565288141369820,-0.0141661800444126,-0.0503067113459110,-0.0211370736360550,0.0727579295635223,-0.0734749585390091,0.0372121557593346,-0.0032365422230214,0.0027974108234048,0.0176312327384949,0.0337432101368904,0.0087659051641822,0.0318704321980476,0.0055943992920220,-0.0597616955637932,-0.0465616546571255,0.1105694547295570,0.0301657523959875,0.0792989656329155,-0.0130639197304845,-0.0384060628712177,0.0184045620262623,0.0287766717374325,0.0734558701515198,-0.0297132506966591,0.1076443344354630,0.0705359876155853,-0.0501081049442291,0.1045033037662506,0.0577055662870407,0.0330140553414822,-0.0032126358710229,-0.0550828874111176,0.0606907568871975,0.1017686650156975,0.0634839087724686,-0.0106417648494244,0.0250273384153843,0.0732997581362724,0.0697634518146515,0.0392351932823658,-0.0052065174095333,0.0526182018220425,0.0484704598784447,-0.0469517260789871,-0.0272106546908617,-0.0453304313123226,0.0718653053045273,-0.0358158536255360,0.0645678415894508,-0.0417152270674706,0.0225464683026075,-0.0196078028529882,0.0676768869161606,0.0356467477977276,-0.0374548025429249,0.0093003660440445,0.0670189261436462,0.0015902484301478,0.0382068194448948,-0.0417558327317238,0.0775402560830116,0.0763631835579872,0.1144265308976173,-0.0284493211656809,0.0365713015198708,-0.0788212120532990,0.0691690519452095,0.0485665611922741,0.0291394274681807,0.0498519763350487,-0.0153464442119002,0.0228217244148254,0.0625866279006004,0.0847564786672592,0.0634419471025467,-0.0165966935455799,0.0194148961454630,0.0377772375941277,-0.0500691756606102,-0.0469571165740490,-0.0148396259173751,-0.0542163290083408,-0.0405048951506615,-0.0730101987719536,0.0610509254038334,-0.0105659859254956,0.0610317848622799,-0.0018735590856522,0.1038952767848969,-0.0189653690904379,-0.0131192766129971,-0.0196226760745049,0.0108603285625577,-0.0467569343745708,0.0755866765975952,-0.0800845399498940,-0.0252574421465397,0.0260801333934069,0.0573667734861374,-0.0324938558042049,0.0335286818444729,-0.0225239340215921,0.0851921364665031,0.0872162729501724,0.0266199614852667,0.0257357340306044,0.0183411743491888,-0.0360028147697449,0.0523982383310795,0.0395979732275009,0.0909819230437279,-0.0137436650693417,0.0470428876578808,-0.0022948246914893,-0.0314707644283772,-0.0160374883562326,-0.0549776963889599,-0.0578674972057343,0.0842164680361748,0.0628986433148384,-0.0395848341286182,-0.0097140530124307,0.0678552612662315,-0.0512733832001686,-0.0165406093001366,0.0515856519341469,0.0814033746719360,0.0834512189030647,-0.0210070870816708,-0.0206472165882587,-0.0004022185457870,0.0356847271323204,0.0484293438494205,-0.0443549044430256,0.0548174344003201,-0.0627169981598854,-0.1179025247693062,0.0225918479263783,0.0294886603951454,-0.0412068888545036,-0.0028522994834930,0.0636194199323654,-0.0554123818874359,-0.0389266684651375,-0.0344639495015144,0.0396806821227074,0.0639232769608498,-0.0182246565818787,-0.0488191992044449,0.0565917603671551,0.0320985205471516,-0.0059106028638780,0.0164988432079554,-0.0402717441320419,-0.0184302572160959,-0.0617152936756611,-0.0214409753680229,-0.0139572760090232,0.0007381757604890,-0.0499655641615391,-0.0122995721176267,-0.0654591247439384,-0.0237165056169033,0.0965023860335350,0.0192809347063303,0.0630789846181870,0.0033532425295562,-0.0955494791269302,0.0354745239019394,-0.0478641465306282,0.0540910400450230,-0.0146274017170072,0.0163104478269815,-0.0297005511820316,-0.0484905727207661,0.0217001903802156,0.0329641476273537,0.0655016899108887,-0.0128696737810969,-0.0941043049097061,0.0722092315554619,0.0397311411798000,0.0064806737937033,0.0426447167992592,-0.0565026812255383,-0.0720095187425613,-0.0154440132901073,0.0223195925354958,0.0247478932142258,0.0407815054059029,-0.0310198962688446,-0.1044137403368950,0.0323754176497459,0.0078359581530094,-0.0629859343171120,0.0539657138288021,-0.0664960369467735,-0.0237010922282934,0.0335561931133270,0.0976357460021973,-0.0231874641031027,0.0438780225813389,-0.0342335775494576,-0.0192844830453396,-0.0091290082782507,0.0837205126881599,-0.0583437159657478,0.0133490469306707,-0.0767541527748108,-0.0602522231638432,0.0068323123268783,0.0019876251462847,0.0572961233556271,0.0181234981864691,0.0472096428275108,-0.0538784004747868,0.0452479384839535,-0.0069921244867146,-0.0640473961830139,0.0698424652218819,-0.0126604400575161,-0.0115158529952168,0.0095406798645854,0.0930692404508591,0.0125527121126652,0.0699997991323471,0.0285818148404360,-0.0608170740306377,0.0268441978842020,0.0714914649724960,-0.0700679719448090,-0.0647321343421936,0.0713096484541893,0.0368509814143181,-0.0481014810502529,-0.0142974257469177,0.0652793124318123,0.0463717356324196,-0.0559061653912067,-0.1006549298763275,0.0867451503872871,-0.0296760667115450,-0.0595280639827251,-0.0571788214147091,-0.0045561920851469,-0.0927374288439751,-0.0146479569375515,0.0034439959563315,-0.0629664659500122,0.0003455239348114,0.0296060144901276,-0.0950421318411827,-0.0264436230063438,0.0534009188413620,0.0351195856928825,0.0259540174156427,-0.0235330723226070,0.0260927211493254,0.0285566709935665,-0.0319322757422924,-0.0147149246186018,0.0561342947185040,0.0595833025872707,-0.1170825138688087,0.0187223069369793,-0.0594930574297905,-0.0060246554203331,0.0341789163649082,0.0683016479015350,-0.0855533257126808,-0.0217674225568771,0.0135169681161642,0.0280730854719877,0.0685724467039108,0.0913073793053627,-0.1098974719643593,-0.0083199851214886,0.0388437733054161,0.1238974779844284,0.0155666731297970,0.0764292106032372,-0.0570703297853470,-0.0209215693175793,0.0935411900281906,0.0020293665584177,0.0901279151439667,-0.0028746244497597,-0.0013984234537929,-0.0619409941136837,-0.0175145454704762,-0.0438579581677914,0.0217181853950024,-0.0759265497326851,-0.0217130947858095,0.0240014400333166,-0.0574955083429813,-0.0104659441858530,0.0239870287477970,0.0035639894194901,-0.0143382353708148,0.0365182571113110,-0.0878169983625412,0.0419751852750778,-0.0181947238743305,0.0615867190063000,-0.0664187297224998,-0.0509391091763973,-0.0943387001752853,0.0212863329797983,-0.0094079431146383,0.0446170046925545,-0.0546815618872643,0.0490879938006401,-0.0929435864090919,0.0365896448493004,-0.0305263753980398,0.0334885790944099,-0.0869371742010117,-0.0598404817283154,-0.0659329295158386,-0.0008187438943423,-0.0251477826386690,0.0072864391840994,-0.0459103062748909,-0.0089781051501632,-0.0291958414018154,-0.0755451843142509,-0.0008919793763198,0.0729851946234703,-0.0449430011212826,-0.0100670196115971,-0.0802723839879036,-0.0666556060314178,0.0761880874633789,0.0339795313775539,0.0089626489207149,0.0056361919268966,-0.0069806259125471,0.0016592231113464,-0.0339191704988480,0.0149376578629017,-0.0896069332957268,0.0031544771045446,-0.1074047908186913,-0.0613735653460026,-0.0098649794235826,0.0034035206772387,0.0312397871166468,0.0827856138348579,-0.0927208289504051,0.0242487080395222,-0.0629287734627724,0.0582970008254051,0.0006655564066023,-0.0123469214886427,-0.0703087598085403,0.0309640765190125,-0.0336235500872135,0.0199676752090454,-0.0902619808912277,-0.0063881627283990,-0.0581636503338814,0.0724886134266853,-0.0260368995368481,-0.0442676283419132,0.0066136275418103,0.0606347620487213,0.0017244543414563,-0.0360399447381496,-0.0408489443361759,-0.0143244750797749,-0.0844402238726616,-0.0232335459440947,-0.0852645039558411,-0.0169342439621687,0.0649546831846237,0.0439176820218563,-0.0188193563371897,0.0753586143255234,-0.0867527425289154,0.0296963863074780,0.0908587947487831,0.0635675787925720,0.0400175824761391,0.0446735695004463,-0.0665583610534668,-0.0038019730709493,0.0541804283857346,0.0475401580333710,0.0058040157891810,0.0105756754055619,0.0451205447316170,0.0303908679634333,-0.0520366504788399,-0.0272541735321283,-0.0349194183945656,-0.0307655669748783,0.0180639978498220,0.0513969138264656,0.0430680252611637,0.0117138093337417,-0.0794328600168228,-0.0460797809064388,-0.0356000289320946,-0.0207707509398460,0.0245444402098656,0.0878076627850533,0.0466366000473499,-0.0415617339313030,-0.0162795837968588,0.0091276131570339,0.0423472747206688,0.1152477115392685,-0.0623844042420387,-0.0381371341645718,-0.0568556040525436,-0.0134300598874688,0.0722948238253593,0.1031021550297737,-0.0608366169035435,0.0457032918930054,0.0258577987551689,-0.0137829510495067,-0.0688987076282501,0.1298280507326126,0.0289467275142670,0.0236776489764452,-0.0598756633698940,0.1314993500709534,0.0712908580899239,0.0775814577937126,-0.0048989029601216,0.0044561182148755,0.0553488582372665,0.1249296516180038,0.0352004058659077,0.0775647684931755,0.0764937847852707,0.0657962113618851,-0.0596621446311474,0.0296033881604671,-0.0688626989722252,0.0839254856109619,-0.0137692270800471,-0.0164130982011557,-0.0018566367216408,-0.0586188957095146,0.0072519895620644,0.0100354105234146,0.0621978603303432,-0.0294491406530142,-0.0640281513333321,0.0318499952554703,-0.0879918113350868,-0.0335312522947788,0.0732667148113251,0.0887491926550865,0.0211432427167892,-0.0163170136511326,-0.0944862961769104,0.0425884425640106,-0.0133059108629823,0.0249479282647371,-0.0631762593984604,0.0109387729316950,-0.0361835733056068,0.0441810116171837,-0.0330077037215233,0.0634471699595451,-0.0154749946668744,-0.0200290177017450,-0.0675402060151100,-0.0400953665375710,0.0023508502636105,0.0260733012109995,0.0138109484687448,0.0621229149401188,0.0193885862827301,-0.0107288043946028,0.0888752192258835,-0.0271498616784811,0.0077872346155345,0.0248910263180733,0.0312751978635788,0.0639621168375015,0.0507732853293419,0.0063151642680168,0.0489656142890453,0.0781526416540146,0.0242846775799990,-0.0739740282297134,-0.0486807040870190,-0.0632631257176399,0.0416433997452259,0.0461395271122456,0.0504530221223831,-0.0703244283795357,0.0220847353339195,0.0840826034545898,0.0078223925083876,0.0459855720400810,0.0204204320907593,0.0660705342888832,0.0135013749822974,-0.0569529347121716,0.0421899519860744,0.0919762477278709,0.0353606194257736,-0.0420960634946823,0.0873295739293098,-0.0637518391013145,0.0773334801197052,-0.0652414858341217,0.0266895126551390,0.0005761438515037,-0.0416150391101837,0.0691796541213989,-0.0691546499729156,0.0219909138977528,0.0489986911416054,0.0407108999788761,0.0558749474585056,0.0686733424663544,-0.0214403551071882,0.0715105608105659,0.0453036166727543,0.0843711197376251,0.0663209408521652,0.0074217701330781,0.0818126946687698,0.0824821665883064,0.0431699194014072,-0.0244703087955713,-0.0125818075612187,0.0050962213426828,0.0261014774441719,-0.0475805625319481,-0.0079457471147180,0.0313418209552765,-0.0191033072769642,-0.0583039186894894,0.0725920200347900,0.0778188407421112,-0.0335416346788406,-0.0153829474002123,-0.0299327541142702,-0.0681024342775345,0.0908151343464851,0.0050804950296879,0.0233970135450363,0.0403274744749069,0.0628082454204559,-0.0355704501271248,-0.0507923401892185,0.0262663904577494,-0.0540820658206940,0.0854321718215942,0.0763273984193802,0.0015282548265532,0.0412389412522316,0.0312205646187067,-0.0947734266519547,-0.0005766621325165,-0.0563255995512009,-0.0575676932930946,-0.0433664061129093,-0.0377222150564194,0.0350068211555481,0.0546919442713261,0.0455971471965313,-0.0473433248698711,0.0748961642384529,-0.0073213181458414,0.0585759207606316,0.0048339464701712,0.0480133704841137,-0.0483590550720692,0.0370956696569920,-0.0033380805980414,-0.0353653989732265,-0.0269410386681557,0.0551192276179790,-0.0477741546928883,-0.0176217146217823,-0.0154438745230436,0.0215020198374987,0.0737532377243042,0.0497101955115795,-0.0594324693083763,-0.0500586442649364,-0.0239423867315054,0.0515044294297695,-0.0352399274706841,0.0055986377410591,0.0595007911324501,0.0147833796218038,0.0438786968588829,-0.0153494486585259,0.0782872512936592,0.0361527875065804,-0.0173792317509651,0.0245659351348877,-0.0133321098983288,0.0324827916920185,0.0674115270376205,0.0282146073877811,-0.0265126954764128,0.0322846956551075,0.1022883653640747,-0.0404559820890427,-0.0796640664339066,-0.0832535997033119,-0.0594372190535069,-0.0455733947455883,0.0615642741322517,0.0268491189926863,-0.0501753687858582,0.0663916766643524,0.0509615167975426,0.0470824800431728,-0.0112510211765766,-0.0739576518535614,0.0439887680113316,-0.0313045270740986,-0.0567510351538658,-0.0156459081918001,-0.0479705445468426,0.0500591211020947,-0.0066522089764476,0.0269119162112474,-0.0056563871912658,0.0025385394692421,-0.0627902671694756,-0.0289400350302458,0.0042277756147087,0.0776094794273376,0.0214920658618212,0.0059091602452099,0.0440364331007004,-0.0753687769174576,-0.0600246936082840,0.0738704204559326,0.0261332504451275,-0.0296942647546530,0.0158488973975182,0.0771238133311272,0.0434459559619427,0.0543493926525116,0.0030151377432048,0.0355095192790031,0.0731211155653000,-0.0365673601627350,-0.0078635625541210,0.0348669253289700,0.0137668941169977,0.0540314279496670,0.0405985601246357,0.0191417410969734,-0.0125646954402328,0.0453331880271435,-0.0184834636747837,-0.0058637345209718,-0.0013795766280964,-0.0594397932291031,0.0167736858129501,0.0043774326331913,-0.0051464159041643,0.0288186799734831,0.0622846297919750,0.0359748154878616,0.0117348916828632,-0.0330416187644005,0.0460721440613270,-0.0409903191030025,-0.0480205491185188,-0.0748636350035667,-0.0398601628839970,0.0390252768993378,-0.0529250986874104,0.0599618069827557,0.0670798644423485,0.0325305797159672,-0.0749511793255806,-0.0159899517893791,0.0590972565114498,-0.0070965085178614,0.0707095861434937,-0.0126290963962674,-0.0236038770526648,-0.0301061887294054,0.0518870726227760,-0.0687714517116547,0.0646067112684250,0.0514593683183193,-0.0697577595710754,-0.0216343067586422,-0.0112964119762182,-0.0272275842726231,0.0789407789707184,-0.0563747957348824,-0.0137578491121531,0.0216987803578377,-0.0029087755829096,-0.0491592325270176,-0.0405319184064865,-0.0602738298475742,-0.0631766989827156,-0.0630182325839996,0.0391866825520992,0.0699022039771080,0.0339723378419876,0.0028089296538383,-0.0819952636957169,-0.0398262962698936,-0.0101101547479630,0.0502840913832188,-0.0143957715481520,-0.0569075681269169,-0.0760794952511787,0.0552109703421593,-0.0475142933428288,-0.0640893206000328,-0.0407214835286140,-0.0360122434794903,-0.0464887581765652,0.0157915670424700,0.0006922686006874,-0.0558627732098103,-0.0491320788860321,0.0293550342321396,-0.0164227392524481,0.0216476451605558,-0.0693681240081787,0.0152149973437190,0.0116045512259007,-0.0758298560976982,-0.0596171915531158,0.0061576128937304,0.0827851966023445,-0.0147015089169145,0.0231577530503273,-0.0207423344254494,0.0129391904920340,0.0877366065979004,0.0206604264676571,-0.0826504528522491,-0.0008608795469627,-0.0339729189872742,-0.0571083240211010,0.0030513228848577,-0.0647223517298698,-0.0578982084989548,0.0219736769795418,0.0442699417471886,0.0186064206063747,-0.0409562699496746,0.0379018336534500,0.0702032968401909,0.0408989898860455,0.0616719946265221,-0.0558029860258102,0.0938073843717575,0.0267279651015997,-0.0425025634467602,-0.0785447433590889,0.0487731397151947,0.0258446484804153,0.0713800787925720,-0.0468589887022972,0.0369623452425003,-0.0572556816041470,0.0486371703445911,-0.0527912303805351,0.0951047539710999,-0.0454218834638596,-0.0282338652759790,0.0610064305365086,0.0091859446838498,0.0115074841305614,0.0781423076987267,-0.0357381552457809,0.0200040396302938,0.0003126342780888,0.0047397972084582,-0.0340440832078457,-0.0209869835525751,-0.0266338717192411,0.0551751405000687,-0.0040789451450109,0.0342117212712765,-0.0408656448125839,-0.0537838339805603,-0.0183422379195690,0.0098235085606575,-0.0327061042189598,-0.0143372127786279,0.0182993486523628,0.0922397524118423,-0.0171484649181366,-0.0501899681985378,-0.0444655753672123,0.0741042941808701,0.0569008812308311,0.0933177024126053,0.0537995696067810,-0.0262488052248955,0.0225119125097990,-0.0254431925714016,0.0495702065527439,0.0137847270816565,0.0860499888658524,0.0297672916203737,0.0076823648996651,-0.0118315238505602,-0.0165180079638958,0.0287170503288507,0.0515601597726345,-0.0567621737718582,-0.0835738852620125,-0.0410456433892250,-0.0374252162873745,-0.0475401207804680,-0.0228362008929253,-0.0228524245321751,0.0592798218131065,-0.0731681808829308,0.0913308486342430,-0.0165803413838148,0.0063179363496602,-0.0745597705245018,0.0646053105592728,-0.0333962514996529,0.0003438493004069,0.0101196691393852,0.0502956919372082,-0.0489055290818214,-0.0025908343959600,0.0009557940647937,-0.0233510360121727,-0.0132577521726489,0.0439544133841991,0.0175413880497217,-0.0222237575799227,-0.0055394954979420,-0.0332576185464859,0.0210143439471722,0.0096152955666184,0.0467926897108555,0.0090718176215887,0.0199490580707788,-0.0545107945799828,0.0775253921747208,0.0033331196755171,0.0009383428841829,0.0056476150639355,-0.0321333743631840,0.0615891553461552,0.0136558562517166,0.0258191358298063,0.0150025701150298,0.0011619607685134,0.0722473859786987,-0.0259582698345184,0.0514881536364555,0.0808963999152184,-0.0500411055982113,-0.0332995057106018,-0.0518066473305225,-0.0207030512392521,0.0896371081471443,-0.0499187596142292,0.0442011505365372,0.0065504396334291,0.0098736649379134,-0.0449089258909225,0.0094574922695756,0.0685111284255981,-0.0880288630723953,-0.0065635936334729,-0.0777901560068130,0.0864504128694534,-0.0678320974111557,0.0366641059517860,-0.0451909266412258,-0.0299879778176546,0.0314825847744942,0.0123175438493490,0.0560421943664551,-0.0626843348145485,0.0815323740243912,0.0624237582087517,-0.0390691086649895,-0.0766567960381508,-0.0453039146959782,0.0615727081894875,-0.0540724806487560,0.0367520563304424,-0.0154736125841737,-0.0427319556474686,0.0031806784681976,0.0706586465239525,-0.0064138192683458,0.0600650981068611,0.0130176143720746,-0.0225320328027010,0.0601798146963120,0.0191441476345062,0.0854941606521606,0.0403332673013210,0.0581000111997128,0.0335265994071960,0.0404031574726105,0.0794053748250008,-0.0557240433990955,0.0794451385736465,0.0628994852304459,-0.0648049339652061,0.0283843018114567,0.0132096735760570,0.0937043726444244,-0.0572583749890327,-0.0266046077013016,-0.0144999129697680,-0.0602626390755177,0.0609910003840923,0.0261172857135534,-0.0592102296650410,-0.0697138085961342,-0.0143641913309693,-0.0270205941051245,0.0411933958530426,0.0308182053267956,0.0219873711466789,0.0759149640798569,0.0698570460081100,-0.0558552294969559,-0.0591297671198845,0.0653287917375565,-0.0611611716449261,0.0317188277840614,-0.0689444839954376,0.0310472697019577,0.0383689850568771,-0.0246416926383972,-0.0539060086011887,-0.0017572342185304,-0.0179208703339100,0.0566148385405540,-0.0172888953238726,0.0552402175962925,0.0703109353780746,0.0542717985808849,0.0934861451387405,-0.0397287681698799,0.0119358850643039,-0.0539092831313610,-0.0222726631909609,-0.0071990853175521,0.0794449672102928,-0.0151713611558080,0.0455352738499641,0.0084665575996041,0.0023624359164387,-0.0372855365276337,0.0382457822561264,0.0168785024434328,-0.0122857466340065,0.0149727948009968,0.0606415756046772,-0.0565200895071030,0.0789049938321114,-0.0647261217236519,0.0169549696147442,0.0644710659980774,0.0817234814167023,-0.0513377152383327,0.0513707473874092,-0.0692463219165802,0.0833905786275864,0.0340476706624031,-0.0381700135767460,0.0362681932747364,0.0733414888381958,0.0465910099446774,0.0723453238606453,0.0680050998926163,0.0432979837059975,-0.0475636050105095,0.0309502538293600,0.0029602923896164,0.0103827565908432,0.0884746760129929,-0.0273978486657143,-0.0121968341991305,-0.0714211463928223,-0.0371855795383453,-0.0205572284758091,0.0130876889452338,0.0093581303954124,0.0563853532075882,-0.0393739491701126,0.0301708914339542,-0.0312942489981651,0.0375539176166058,-0.0434962809085846,-0.0065662912093103,-0.0082389302551746,-0.0376788489520550,0.0539919175207615,0.0718993172049522,0.0181240830570459,0.0887700617313385,-0.0097915353253484,0.0714968144893646,-0.0295319575816393,0.0760398730635643,0.0236828289926052,-0.0195362027734518,-0.0441903285682201,-0.0156981684267521,0.0792458355426788,-0.0153806786984205,0.0317209884524345,0.0944155305624008,0.0280572958290577,-0.0641967281699181,-0.0579487942159176,0.0558451078832150,0.0635156780481339,-0.0240893289446831,0.0582469739019871,0.0100570963695645,-0.0215876698493958,0.0315054319798946,-0.0467795394361019,0.0905596837401390,0.0138050047680736,0.0821285694837570,0.0650960132479668,-0.0177974440157413,-0.0038018871564418,-0.0431579500436783,0.0242801010608673,0.0919918045401573,0.0102741271257401,-0.0021840934641659,-0.0038438199553639,-0.0285213403403759,-0.0523654185235500,0.0143536012619734,0.0000766304510762,-0.0829281583428383,-0.0427180007100105,-0.0387972109019756,0.0114261396229267,-0.0438496433198452,-0.0031507655512542,0.0626281052827835,0.0508635640144348,0.0179827231913805,0.0165658295154572,-0.0511761978268623,-0.0434814803302288,-0.0750168114900589,-0.0070678424090147,0.0877636075019836,0.0580843836069107,0.0050099361687899,-0.0493986569344997,-0.0459596626460552,-0.0639706924557686,-0.0504905208945274,-0.0525973774492741,0.0808088704943657,0.0707011744379997,0.0216663405299187,-0.0827746912837029,0.0221226476132870,0.0822498649358749,-0.0410595946013927,0.0746086463332176,-0.0302274115383625,-0.0009170303237624,0.0458158701658249,0.0860335603356361,0.0370000526309013,-0.0260890051722527,-0.0459639504551888,0.0364437997341156,0.0333659648895264,-0.0244829058647156,-0.0252164360135794,-0.0242770221084356,0.0065443925559521,-0.0362105481326580,0.0320929028093815,0.0162071567028761,0.0266165770590305,-0.0515104234218597,0.0624044425785542,-0.0232313014566898,0.0059485216625035,0.0347538702189922,0.0029026616830379,0.0419472940266132,-0.0400507301092148,-0.0330742150545120,-0.0499584525823593,0.0519847087562084,0.0395195856690407,-0.0158389341086149,0.0570126473903656,0.0143197970464826,0.0426627062261105,-0.0584293194115162,-0.0092363255098462,-0.0038502316456288,0.0072161294519901,0.0531421676278114,0.0708693787455559,-0.0284067261964083,0.0041522076353431,0.0527811162173748,-0.0091483518481255,-0.0740644931793213,0.0408869087696075,-0.0566840581595898,0.0151595203205943,-0.0278181694447994,-0.0031061801128089,-0.0303538814187050,-0.0839752033352852,0.0303446631878614,0.0315010435879230,-0.0005465312860906,-0.0152642354369164,-0.0176713187247515,0.0115431416779757,0.0729943215847015,0.0396923087537289,0.0222032070159912,-0.0615162029862404,-0.0588006898760796,0.0687725618481636,0.0320629775524139,0.0109877744689584,0.0666043534874916,0.0019476243760437,-0.0349144116044044,-0.0322732217609882,0.0259184855967760,-0.0493477657437325,0.0941207259893417,-0.0978026837110519,-0.0243542175740004,-0.0607898421585560,-0.0428039841353893,-0.0346606560051441,0.0531145036220551,0.0306934658437967,-0.0804309323430061,0.0402579680085182,-0.0140382684767246,-0.0775610804557800,-0.0293741989880800,-0.0758412703871727,0.0213274098932743,0.0506870821118355,0.0658159777522087,-0.0115247201174498,0.0646853595972061,-0.0908731594681740,0.0562800168991089,0.0200967174023390,-0.0123456930741668,-0.0462220385670662,0.0525012053549290,0.0091516897082329,-0.0386999845504761,0.0400653332471848,0.0623660162091255,-0.0497974939644337,-0.0258528515696526,-0.0098114460706711,0.0083168037235737,-0.0053140493109822,-0.0520074665546417,-0.0059010665863752,0.0531930327415466,0.0288147442042828,0.0501982085406780,-0.0204251389950514,0.0476922541856766,-0.0120598860085011,-0.0438358522951603,-0.0484454110264778,0.0882901102304459,0.0089375413954258,0.0334391370415688,0.1031707227230072,-0.0001934204046847,-0.0607568249106407,0.0349967181682587,0.0612316876649857,-0.0695995166897774,0.0734056681394577,0.0728275999426842,0.0075289951637387,-0.0057319221086800,0.0810114443302155,-0.0111352419480681,0.0569774284958839,0.0652102082967758,-0.0147072207182646,-0.0626013949513435,0.1007844209671021,-0.0241983793675900,0.0713106468319893,0.0327721908688545,-0.0185205154120922,0.0272944048047066,-0.0115841319784522,-0.0774791985750198,-0.0279727317392826,-0.0153523134067655,0.0137119879946113,0.0234283152967691,0.0632652044296265,-0.0046473173424602,0.0859535336494446,0.0512109249830246,-0.0233696661889553,-0.0490702912211418,0.0335167050361633,0.0441544391214848,-0.0263576284050941,-0.0124525818973780,0.0268036853522062,-0.0106565179303288,-0.0210321657359600,-0.0015523897018284,0.0955191776156425,0.0698331817984581,0.0756814777851105,0.0360307060182095,0.0979577749967575,-0.0135744791477919,-0.0103333471342921,0.0701983124017715,0.0331665836274624,-0.0649639144539833,-0.0064804418943822,-0.0301814153790474,0.0390671603381634,0.0546500533819199,0.0020845129620284,-0.0445354692637920,0.0095155257731676,0.0784212350845337,0.0170606486499310,0.1114738285541534,0.0646964460611343,0.0494855791330338,0.0809608846902847,-0.0453379638493061,0.0784935429692268,-0.0118145039305091,0.0425068922340870,0.0267869867384434,0.0894753634929657,-0.0605411455035210,0.0925345495343208,0.0603190585970879,0.0147058814764023,0.0886436477303505,-0.0533159226179123,-0.0628745406866074,-0.0066763400100172,-0.0199970826506615,0.0540495216846466,-0.0721901580691338,0.0019926552195102,0.0501252599060535,-0.0177219398319721,0.0717310011386871,0.0331858582794666,0.0657180249691010,-0.0157035570591688,-0.0486124791204929,0.0794425308704376,0.0526396073400974,-0.0044202054850757,0.0333119146525860,0.0353455692529678,-0.0167616996914148,-0.0540116131305695,-0.0084276460111141,-0.0511987246572971,-0.0454126670956612,-0.0519476458430290,-0.0533443689346313,0.0232160445302725,0.0734285786747932,0.0591848269104958,-0.0134898843243718,-0.0085787214338779,-0.0635409206151962,0.0505093894898891,0.0262252092361450,-0.0414858087897301,0.0339746624231339,-0.0420735292136669,0.0731295347213745,-0.0438859872519970,-0.0187606364488602,0.0667618811130524,0.0341537073254585,-0.0566549599170685,0.0121614374220371,0.0727406665682793,0.0428120382130146,0.0174841247498989,0.0507221519947052,0.0241691134870052,-0.0168914552778006,-0.0497085265815258,0.0710614770650864,-0.0709204673767090,-0.0303311012685299,0.0046141240745783,0.0604051016271114,-0.0168924536556005,0.0530458129942417,0.0427270978689194,-0.0580349452793598,-0.0651861652731895,-0.0430134907364845,-0.0428945161402225,-0.0363684482872486,-0.0546778552234173,0.0007777250721119,0.0114203495904803,-0.0513670593500137,0.0370753817260265,-0.0907635688781738,-0.0119506977498531,-0.1280060410499573,-0.0642693787813187,0.0746731609106064,0.0173594933003187,-0.0157157778739929,0.0088894348591566,-0.0430196225643158,-0.0693504214286804,0.0696766003966331,-0.0183558892458677,-0.0996660292148590,-0.0544179603457451,0.0466590858995914,0.0201024226844311,-0.0120864612981677,-0.0282217152416706,-0.0122315175831318,0.0667798221111298,-0.0541405864059925,-0.0276837423443794,0.0755809769034386,0.0134536875411868,-0.0429138056933880,0.0730197727680206,-0.0209094248712063,-0.0467599034309387,0.0038892328739166,0.0589541941881180,-0.0948380604386330,-0.0206201653927565,0.0026431262958795,-0.0148185035213828,0.0545526444911957,0.0302624478936195,-0.0362125560641289,0.0084596052765846,0.0204739496111870,0.0386428125202656,0.1036981493234634,0.0543657243251801,0.0083384094759822,0.0608406476676464,0.0101306093856692,-0.0522004887461662,0.0887900963425636,0.0173106733709574,0.0291346888989210,-0.0155377462506294,0.0608939342200756,-0.1137256696820259,0.0264399424195290,-0.0332405157387257,-0.1060261800885201,0.0257255844771862,-0.0041087213903666,0.0359214656054974,0.0303923413157463,0.0146838231012225,-0.0289408117532730,-0.0043091420084238,-0.0156339630484581,0.0367889702320099,0.0217645540833473,0.0093776853755116,-0.0146893560886383,-0.0880323499441147,-0.0713434070348740,0.0238824877887964,0.1111526563763618,-0.0082452334463596,-0.0459252521395683,-0.0220104213804007,-0.0597742944955826,-0.1167300939559937,0.1205468848347664,0.0362455211579800,-0.0505111180245876,0.0368207134306431,-0.0470072962343693,-0.0448044389486313,-0.0183096937835217,-0.0697237551212311,-0.0696615725755692,-0.0563699789345264,0.0700678676366806,-0.1054749563336372,-0.0177308395504951,-0.0297302231192589,-0.0965533182024956,-0.0522526465356350,-0.0231824498623610,-0.0312257707118988,0.0760115906596184,0.0520043782889843,-0.0611213669180870,0.0106279915198684,0.0477041490375996,-0.0835532322525978,0.1374231874942780,-0.0496762618422508,-0.0011669088853523,0.0460477769374847,0.0190382804721594,-0.0728261098265648,0.0090465024113655,0.0392941087484360,-0.0177002064883709,0.0513389669358730,-0.0238736271858215,0.0032944891136140,0.0553746037185192,-0.0954911708831787,-0.0766912773251534,-0.0582565926015377,0.0411048047244549,0.0495441555976868,0.1298311203718185,-0.0026658705901355,-0.0900490731000900,0.0167262852191925,0.1072686463594437,-0.0685667470097542,0.0567920543253422,0.0214324593544006,-0.0257040951400995,0.0426833555102348,0.0120972385630012,-0.0520116426050663,0.0969209969043732,-0.0139033785089850,-0.1064516529440880,-0.0778912007808685,0.0694815292954445,-0.0661006346344948,0.0989635661244392,0.0362202711403370,-0.0759817212820053,-0.0768355950713158,0.0977943614125252,0.0239458624273539,-0.0215633809566498,-0.0285417195409536,-0.0205927994102240,-0.0098558869212866,0.0800606980919838,-0.0824430510401726,-0.1073261722922325,0.0495424643158913,-0.0675403103232384,-0.0127747990190983,-0.0486582368612289,-0.0578367151319981,-0.0505696311593056,0.0752294734120369,0.0836577564477921,-0.0528818406164646,-0.0234234910458326,-0.0292297638952732,0.0004302912275307,0.0183826573193073,0.0182001218199730,0.0758513137698174,-0.0032445655670017,-0.0706413015723228,0.0201344452798367,-0.0291329286992550,0.0301673412322998,-0.0111920759081841,-0.0117636928334832,-0.0891818627715111,0.0191709659993649,0.0582780465483665,0.0515430569648743,-0.0337312109768391,0.0841625183820724,-0.0688314214348793,-0.0194370988756418,0.0484683699905872,-0.0242923535406590,-0.0179749485105276,-0.0060576787218451,-0.0461063235998154,-0.0620852895081043,0.0044389781542122,0.0758678093552589,-0.0525207482278347,-0.0407957583665848,-0.0836427435278893,0.0196564700454473,0.0961926504969597,0.0100242365151644,-0.0509926229715347,-0.0263492502272129,-0.0657717734575272,-0.0526624284684658,-0.0528861060738564,-0.0231018364429474,-0.0392876639962196,0.0411177538335323,-0.0033180366735905,0.0649629533290863,-0.0082922754809260,0.0261360108852386,0.0341846793889999,0.0589626505970955,-0.0579526163637638,0.0301015079021454,-0.0241333153098822,0.0008871051832102,0.0151324169710279,-0.0872278884053230,-0.0660101845860481,0.0514717437326908,-0.0443037189543247,0.0332579649984837,-0.0058465832844377,0.0165257137268782,-0.0994692593812943,0.1034377142786980,-0.0362015105783939,0.0165646448731422,0.0409101881086826,-0.0276394337415695,-0.0807517468929291,0.0151640111580491,-0.0606183484196663,0.0868657156825066,0.0052404459565878,0.0472856685519218,-0.1234757900238037,-0.0566035024821758,0.0663890987634659,0.0456227883696556,0.0660381838679314,-0.0324381180107594,-0.0209866780787706,-0.0404541417956352,-0.0310658570379019,-0.0476927533745766,-0.0800009891390800,0.0104596409946680,-0.0312910117208958,-0.0087291151285172,-0.0004526295815594,0.0246574468910694,0.0645267963409424,0.0265142079442739,-0.0536979474127293,0.0678634643554688,-0.0243619363754988,0.0268571116030216,-0.0770820006728172,0.0240979678928852,-0.0658125802874565,-0.0157419815659523,-0.0362429246306419,0.0115059474483132,-0.0688834264874458,-0.0145542956888676,-0.1147546246647835,0.0271416679024696,0.0278472080826759,0.0037785111926496,-0.0744121521711349,-0.0189587119966745,-0.0059597473591566,-0.0386052057147026,0.0733633190393448,-0.0094334315508604,-0.0545261502265930,0.0319625325500965,-0.0146192405372858,0.0554106682538986,-0.0130477668717504,0.0052580423653126,-0.0665253177285194,0.0538681074976921,-0.0641123577952385,0.0868558734655380,-0.0604582428932190,0.0591789893805981,-0.0853843018412590,0.0176014471799135,-0.0282234549522400,-0.0558985918760300,-0.0627577453851700,-0.0252610202878714,0.0528703108429909,0.0719626098871231,0.0253158453851938,0.0033315331675112,-0.0044626267626882,-0.0351128727197647,0.0240613538771868,0.0852505490183830,-0.1032587513327599,0.0849341005086899,0.0156617686152458,-0.0131636178120971,0.0650543943047523,-0.0017043941188604,-0.0585429146885872,-0.0376383811235428,0.0836951360106468,0.0204983111470938,0.0797290578484535,-0.0526611693203449,-0.0496468059718609,-0.0473387092351913,-0.0266753975301981,-0.0697134807705879,0.0653880164027214,-0.0189090874046087,-0.0657266303896904,0.0184321887791157,0.0594449192285538,-0.0067326850257814,-0.0448372401297092,0.0055586989037693,-0.1091292724013329,-0.0313324294984341,-0.0182647015899420,-0.0058782869018614,0.0000909041846171,-0.0230366550385952,0.0272363405674696,0.0750921741127968,0.0013682699063793,-0.0655271112918854,0.0254541300237179,-0.0595727600157261,-0.0032191686332226,-0.0217796079814434,0.0620331987738609,0.0121607212349772,0.0098280292004347,-0.0051170592196286,-0.0960274189710617,0.0150605989620090,0.0375219099223614,0.0282912980765104,0.0825020670890808,0.0560946315526962,-0.0627792105078697,0.0038979232776910,0.0997340306639671,-0.0131392059847713,0.0121394507586956,-0.0634159222245216,0.0014244758058339,-0.0123869627714157,0.0849118903279305,-0.0051673706620932,0.0228924192488194,0.0319063737988472,-0.0251396410167217,-0.0037115449085832,-0.0137374335899949,0.0164139363914728,0.0149371987208724,0.0719150900840759,-0.1004981100559235,0.0592914670705795,0.0646532550454140,-0.0379670187830925,0.0225753318518400,-0.0262463446706533,0.0209411624819040,0.0032915724441409,-0.0282937288284302,-0.0130429612472653,0.0005007441504858,0.0508183278143406,-0.0613728985190392,-0.0029763912316412,0.0136920250952244,0.0657324865460396,0.0096626840531826,0.0405172780156136,-0.0375342220067978,0.0788008421659470,0.0478776656091213,-0.0039193518459797,-0.0392949357628822,0.0413992963731289,0.0242311079055071,0.0020362630020827,0.0856990665197372,0.0589514449238777,-0.0263086427003145,0.0723724067211151,-0.0123216537758708,-0.0065344609320164,-0.0145273962989450,-0.0533666238188744,0.0311168283224106,0.0208901986479759,0.0323561653494835,0.0133253671228886,0.0505016371607780,0.0777859762310982,-0.0480060726404190,0.0550231784582138,0.0083956727758050,0.0396499261260033,0.0269522219896317,0.0247113052755594,0.0425336882472038,0.0623446069657803,-0.0154656218364835,-0.0394699200987816,0.0699098408222198,-0.0409818701446056,0.0170674305409193,0.0925349518656731,-0.0805654302239418,0.0567294768989086,0.0232307091355324,0.0796299800276756,-0.0386726111173630,0.0238570142537355,-0.0723576843738556,-0.0619587115943432,0.0954511389136314,-0.0434217192232609,0.0364276021718979,0.0075866263359785,0.0341555997729301,-0.0018487923080102,-0.0385991893708706,-0.0403648018836975,0.0193825438618660,-0.0677468776702881,0.0431776121258736,-0.0209800042212009,-0.0070547359064221,-0.0661186128854752,0.0960273817181587,-0.0818111002445221,0.0965227037668228,0.0345747731626034,0.0179543327540159,0.0851300582289696,0.0354033596813679,0.0080837318673730,0.0171558819711208,-0.0920606851577759,0.0038480884395540,-0.0039132037200034,-0.0075718117877841,-0.0149018224328756,0.0935962274670601,0.0358036644756794,-0.0612527728080750,0.0169855598360300,0.0328147336840630,-0.0182372462004423,-0.0517102293670177,-0.0655387714505196,0.0474483855068684,-0.0482167191803455,0.0078616319224238,-0.0654271245002747,-0.0021595142316073,0.0721017867326736,-0.0758865326642990,-0.0015596123412251,0.0100014107301831,0.0458222888410091,-0.0084962425753474,0.0212973281741142,0.0172510277479887,0.0046828603371978,-0.0135619388893247,-0.0298957340419292,0.0591793470084667,-0.0359533913433552,0.0229431837797165,-0.0149669684469700,-0.0142267020419240,-0.0640590563416481,0.0945097208023071,-0.0342228412628174,0.0078872088342905,0.0820015445351601,-0.0400045923888683,-0.0496697090566158,-0.0415863096714020,0.0252158381044865,-0.0837246254086494,0.0853350758552551,0.0196565799415112,-0.0989647507667542,-0.0579563565552235,-0.0170835647732019,-0.0357653535902500,-0.0618574358522892,0.0286246202886105,0.0488457120954990,0.0320315249264240,0.0633164793252945,0.0161543972790241,0.0634223967790604,-0.0404705889523029,-0.0204597320407629,-0.0470622591674328,-0.0454261824488640,0.0119366692379117,0.0611254572868347,-0.0164773873984814,0.0230030268430710,-0.0064504668116570,0.0162446461617947,0.0116490470245481,0.0069827572442591,0.0197900906205177,-0.0515377558767796,0.0049704881384969,-0.0248974282294512,-0.0822287350893021,0.0450845398008823,0.0554584972560406,0.0398481488227844,0.0656351894140244,0.0140947699546814,0.0257632378488779,-0.0219719000160694,-0.0237818472087383,-0.0087148202583194,-0.0130060752853751,0.0891733020544052,0.0127462297677994,0.0875455662608147,-0.0771828293800354,0.0064666937105358,-0.0585638657212257,0.1020632609724998,-0.0441338680684566,0.0116152176633477,-0.0840015783905983,0.0470041334629059,0.0355191193521023,0.1048044860363007,-0.0652618184685707,-0.0423685237765312,0.0302667059004307,0.0425048917531967,0.0235015768557787,-0.0209315679967403,0.0177775546908379,-0.0483865477144718,-0.0250538419932127,-0.0162022504955530,-0.0394071415066719,0.0947878360748291,-0.1041047051548958,0.0891489535570145,0.0071463226340711,-0.0190294813364744,0.0124556403607130,0.0848546177148819,-0.0207889415323734,0.0473280288279057,0.0082837026566267,-0.0597643554210663,0.0381763018667698,0.0761526823043823,0.0455129332840443,-0.0431563146412373,-0.0005641702446155,-0.0354417264461517,-0.0777098610997200,-0.0272089242935181,0.0192964114248753,-0.0348654165863991,0.0061575933359563,0.0026901953388005,0.0138444229960442,0.0844451785087585,-0.0579742901027203,-0.0571460388600826,-0.0133376689627767,0.1319367289543152,0.0359094850718975,0.0360429249703884,-0.0021727306302637,0.0056707989424467,0.0016116853803396,0.1042502075433731,0.0356364361941814,-0.0414685048162937,0.0354194417595863,0.0290710087865591,0.1019760072231293,-0.0862493887543678,0.0267269723117352,0.0251664668321609,0.0661471784114838,0.0055297547951341,0.0170209966599941,0.0336988531053066,-0.0832312107086182,0.0609182715415955,-0.0219639092683792,0.0822188034653664,0.0565979070961475,0.0744555294513702,0.0011657377472147,-0.0601929202675819,-0.0343949794769287,0.1001824066042900,0.0795288383960724,-0.0359286107122898,-0.0371912643313408,0.0782551765441895,-0.0174195971339941,-0.0461650863289833,0.0033103418536484,-0.0487788803875446,-0.0086021563038230,-0.0080723222345114,-0.0005814948817715,0.0200593061745167,0.0845311358571053,0.0747940838336945,-0.0318288058042526,-0.0016166488640010,0.0575762726366520,-0.0229166280478239,0.0129442773759365,0.0450281314551830,0.0491605103015900,-0.0140482708811760,0.0378260947763920,-0.0536173544824123,0.0734676569700241,0.0831722840666771,-0.0410964079201221,0.0596151277422905,0.0352931506931782,0.0621686093509197,0.0673713907599449,0.0882414802908897,0.0471142344176769,0.0065734493546188,0.0529026985168457,-0.0421877875924110,0.1260112375020981,0.0706584379076958,0.0040794909000397,0.0412184260785580,0.0359663031995296,0.0377649106085300,-0.0303950924426317,-0.0496778674423695,-0.0720157548785210,0.0702551677823067,0.0515583083033562,0.0902852416038513,0.1274658441543579,0.0438731350004673,-0.0111149381846189,0.0735540241003036,0.0784762352705002,0.0185826364904642,0.1179265156388283,0.0387793891131878,0.0192382168024778,-0.0371449030935764,0.0513070896267891,-0.0509189181029797,0.1113021522760391,0.0094035146757960,-0.0421931147575378,-0.0287362206727266,-0.0170123390853405,0.0787545293569565,0.1035022959113121,-0.0157708711922169,0.0053020222112536,-0.0178076643496752,0.0357023999094963,-0.0346098132431507,0.1213219538331032,-0.0091884993016720,0.0754985511302948,0.0882576629519463,-0.0072392420843244,-0.0122566176578403,0.0335955023765564,0.0352714546024799,0.0252160280942917,-0.0049995281733572,-0.0430944859981537,0.0486909970641136,0.1014430224895477,0.0945393517613411,-0.0337683968245983,0.0409800298511982,0.0241737868636847,0.0543402805924416,0.0487682633101940,0.0913779586553574,0.0370990112423897,-0.0406166762113571,-0.0237755738198757,0.0403241105377674,-0.0036821372341365,0.0452296994626522,-0.0373120382428169,-0.0744504705071449,0.0700340792536736,0.0331458523869514,0.0126461097970605,0.0465784408152103,-0.0214312560856342,0.0683318078517914,0.0634175390005112,0.0726666077971458,-0.0088577996939421,0.0294021237641573,0.0284725688397884,-0.0094731645658612,-0.0361585691571236,0.0770680680871010,0.0677386596798897,-0.0361479520797729,-0.0024602783378214,0.0146388662979007,0.0046988260000944,0.0397845469415188,0.0268737431615591,-0.1364981532096863,0.0001038896371028,0.0181520637124777,-0.0304453726857901,-0.0409075357019901,0.1043942645192146,-0.0275944732129574,0.0381144173443317,0.0585671365261078,-0.0328328162431717,0.0768549665808678,-0.0184604600071907,0.0093432925641537,-0.0117078302428126,-0.0730618461966515,-0.0029140349943191,0.0647408440709114,0.0505365580320358,-0.0355416797101498,-0.0881684273481369,0.0297920629382133,0.0363011248409748,0.0300584081560373,-0.0255085378885269,-0.0193007700145245,0.0323274321854115,0.0856419876217842,0.0768509507179260,0.0018790484173223,-0.0047626672312617,0.0131434472277761,-0.0307810809463263,0.0089166490361094,0.0607114322483540,-0.0584254451096058,0.0411114320158958,-0.0078130476176739,-0.0929709896445274,0.0287655740976334,-0.0194175131618977,-0.0267923399806023,-0.0616800673305988,0.0044630547054112,-0.0864118263125420,-0.0340931117534637,-0.0499376356601715,-0.0353572331368923,-0.0532377324998379,-0.0174133107066154,-0.0538038164377213,0.0261650867760181,0.0248727239668369,0.0069046588614583,-0.0393072627484798,-0.0125998351722956,-0.0824443548917770,-0.0420221984386444,-0.0599456578493118,-0.0580582469701767,-0.0795315355062485,-0.0621339529752731,0.0438599586486816,-0.0649584680795670,0.0406744554638863,0.0797902122139931,-0.0555282793939114,0.0430949069559574,0.0543352104723454,0.0626498535275459,0.0055421022698283,-0.0278255380690098,-0.0618563331663609,0.0473445653915405,0.0029287722427398,0.0293048508465290,-0.0151752317324281,-0.0560660958290100,-0.0000403160556743,0.0196463484317064,0.0632423907518387,-0.0194447971880436,0.0128407282754779,0.0280888937413692,-0.0922623276710510,-0.0079013705253601,-0.0675654560327530,-0.0459581427276134,0.0003456779522821,0.0463726595044136,-0.0071586458943784,0.0159797091037035,-0.0784655436873436,0.0562293864786625,0.0699902772903442,0.0477711446583271,-0.0499485470354557,-0.0065752714872360,-0.0995099917054176,0.0774033740162849,0.0084041533991694,-0.0440221652388573,-0.0257404539734125,-0.0570427402853966,0.0386597327888012,-0.0189685411751270,-0.0803741216659546,-0.0137034766376019,-0.0159436911344528,-0.1136975139379501,0.0567919537425041,-0.0442433767020702,-0.0262361876666546,0.0882151201367378,0.0268129277974367,-0.1042898297309875,0.0149138234555721,0.0420222841203213,-0.0078263198956847,0.0462660975754261,0.0144863585010171,-0.0592987388372421,-0.0366326645016670,-0.0431730672717094,0.0406574904918671,0.0387631095945835,0.0092884460464120,-0.1012860313057899,0.0071190269663930,-0.0600110702216625,0.0108049521222711,-0.0292378291487694,-0.0629572421312332,0.0043978164903820,-0.0205463338643312,0.0646040141582489,-0.0816666334867477,0.0121240140870214,0.0016642446862534,-0.0628189146518707,-0.0741180628538132,0.0190861411392689,0.0349112264811993,0.0874974355101585,-0.0774158388376236,0.0299266558140516,-0.0790250748395920,0.0970202460885048,0.0717713385820389,-0.0699805915355682,-0.0306252464652061,-0.0360159613192081,-0.0410076715052128,-0.0506091788411140,0.0319352596998215,-0.0155367702245712,-0.0098318206146359,0.0070735653862357,0.0173534601926804,-0.0288871489465237,0.0250782538205385,-0.0190306380391121,0.0797045901417732,-0.0445359945297241,0.0479207709431648,0.0249837860465050,0.0799092426896095,0.0042634885758162,0.1001692190766335,0.0365045927464962,0.0535301230847836,0.0102122435346246,0.0827658325433731,0.0199146270751953,-0.0297597590833902,-0.0183289814740419,0.0895774886012077,-0.0803153738379478,-0.0177246443927288,0.0712845325469971,0.0329998172819614,-0.0154826045036316,0.0951229631900787,0.0462558642029762,0.0443814247846603,-0.0621734708547592,0.0397534966468811,0.0149313472211361,0.0873306766152382,-0.0226944349706173,-0.0023578607942909,0.0072856997139752,-0.0113796526566148,0.0421207733452320,0.0174358151853085,0.0268889795988798,-0.0005177680868655,0.0438116788864136,0.0771217718720436,-0.0325495488941669,0.0122009823098779,0.0364868715405464,-0.0495066121220589,-0.0006190502899699,0.0731233358383179,-0.0062657883390784,0.0411755554378033,0.0333894453942776,-0.0595887303352356,0.0272404085844755,-0.0174116604030132,0.0190973002463579,0.0120243774726987,0.0403645075857639,0.0688664317131042,0.0622027330100536,-0.0354981012642384,-0.0263711996376514,0.0800309702754021,-0.0774092897772789,-0.0285126939415932,0.0731922984123230,0.0975256040692329,-0.0074780141003430,-0.0400138944387436,0.0561234615743160,0.0214908309280872,0.0781418308615685,0.0212304703891277,-0.0371837466955185,0.0213621258735657,-0.0152441011741757,0.1024965792894363,0.0775296762585640,0.0640688389539719,0.0190131347626448,0.0167502909898758,0.0478556491434574,0.0307649988681078,0.0654635950922966,0.0484799630939960,-0.0430633425712585,-0.0121223414316773,0.0540288835763931,0.0219514649361372,-0.0445333123207092,0.0050105531699955,-0.0655867904424667,0.0261046309024096,0.0110646989196539,-0.0302503276616335,-0.0605938881635666,-0.0411573499441147,0.0289255101233721,0.1132885664701462,0.0076660737395287,0.0249346196651459,-0.0520522147417068,0.0052551943808794,0.0154914688318968,0.0325793623924255,0.0065945656970143,0.0700555369257927,0.0616745576262474,-0.0048538907431066,-0.0646543279290199,0.1042938679456711,0.0468252785503864,0.0118967024609447,0.0350881889462471,0.0662791579961777,0.0018372266786173,0.0764197409152985,-0.0629619285464287,0.0576757788658142,-0.0258516371250153,-0.0167505089193583,0.0913130939006805,0.0579281747341156,-0.0440647006034851,-0.0243920702487230,0.0235218014568090,-0.0192242655903101,0.0244293510913849,0.0122141335159540,-0.0956202968955040,0.1010759025812149,-0.0716242715716362,0.0198620427399874,-0.0013053168077022,-0.0273942388594151,-0.0731547400355339,-0.0234544388949871,0.0349811501801014,0.0633721798658371,-0.0263410117477179,0.1244626194238663,-0.0659045353531837,0.0203092843294144,-0.0079937521368265,-0.0363546013832092,-0.0220017321407795,0.1235124915838242,0.0366738997399807,0.0455911383032799,0.0310299806296825,0.0514250397682190,-0.1132088303565979,-0.0650234669446945,0.0123839778825641,-0.0536861419677734,0.0812774971127510,0.0388098284602165,-0.0561648570001125,-0.0705642104148865,-0.0384391844272614,0.0115434629842639,0.0120702031999826,-0.0736254528164864,0.0019187013385817,0.0838157907128334,0.0921109467744827,0.0730672776699066,-0.0309722591191530,-0.0902715921401978,-0.0829320251941681,0.0027990436647087,0.0231220014393330,0.0216469969600439,0.0510599724948406,0.0231072753667831,-0.0724746808409691,0.0176625773310661,0.0631415173411369,-0.0722337141633034,0.0714533403515816,-0.0700212270021439,-0.0749138295650482,-0.0522651933133602,0.0514278933405876,0.0140251610428095,0.0166383422911167,-0.0147956479340792,0.0275078341364861,-0.0445934943854809,-0.0395859852433205,-0.0543643496930599,0.0727773532271385,0.0571054182946682,0.0320019982755184,0.0421152375638485,0.0562299750745296,0.0093237254768610,-0.0161968469619751,-0.0903347879648209,-0.0621753521263599,-0.0197935719043016,-0.0476286374032497,0.0510098226368427,0.0373694784939289,-0.0486856736242771,0.0071347523480654,-0.0059620705433190,0.0418892614543438,-0.0603557638823986,0.0261443741619587,-0.0775527879595757,0.0141843948513269,-0.0165222771465778,0.0031988071277738,-0.0349005647003651,0.0308939591050148,0.0295484606176615,0.0227070394903421,0.0227024033665657,-0.0141668310388923,-0.0561899431049824,0.0216238349676132,-0.0465108342468739,0.0451101660728455,0.0630610659718513,-0.0296171233057976,-0.0655953735113144,0.0466054342687130,-0.0620285011827946,0.0241863653063774,-0.0385078936815262,0.0638800561428070,-0.0292139984667301,0.0568665005266666,0.0399234630167484,-0.0061054499819875,-0.0386446379125118,-0.0071275820955634,-0.0759639590978622,0.0776177793741226,-0.0118591887876391,-0.0024183802306652,0.0363111421465874,0.0393969006836414,-0.0280043464154005,0.0993844270706177,-0.0239658728241920,-0.0284765213727951,0.0197842232882977,-0.0348499193787575,-0.0812141150236130,0.0265465732663870,-0.0594383217394352,0.0215648952871561,0.0626613348722458,-0.0542992167174816,-0.0968067869544029,0.0167225915938616,0.0016439767787233,-0.0247429162263870,-0.0522617846727371,0.0891856625676155,0.0493074990808964,-0.0389716811478138,0.0547352172434330,-0.0496557950973511,0.0674573853611946,0.0179902091622353,0.0162580292671919,-0.0126954074949026,0.0120709137991071,0.0265672709792852,0.0589461550116539,0.0862208902835846,0.0223894622176886,0.0303732119500637,0.0228000599890947,0.0128866666927934,-0.0412380956113338,0.0516625344753265,0.0110061177983880,-0.0395149514079094,-0.0191450566053391,-0.0602214075624943,-0.0223888419568539,0.0937485843896866,0.0447761304676533,0.0409038551151752,0.0474409162998199,0.0673919245600700,-0.0612732879817486,0.0425984971225262,0.0026160960551351,0.1005104780197144,-0.0223264247179031,0.0177731271833181,0.0165766496211290,0.1008497923612595,0.0384755358099937,0.0619895681738853,-0.0607258193194866,-0.0223862025886774,-0.0301482938230038,0.0458586215972900,-0.0435140207409859,0.0717215687036514,-0.0682352557778358,-0.0287446901202202,-0.0017133895307779,-0.0698143914341927,0.0851799398660660,0.0281664393842220,0.0612630657851696,-0.0311984997242689,0.0153092257678509,-0.0352552272379398,0.0151769146323204,-0.0224338099360466,0.0517705306410789,0.0229376647621393,0.0991904661059380,0.0105784228071570,-0.0560437999665737,-0.0294796507805586,-0.0801214054226875,0.0728547871112823,0.0698145478963852,0.0966249778866768,0.0868428573012352,-0.0211834926158190,0.0554147958755493,0.0633643567562103,0.0281186569482088,0.0349753238260746,0.0158671289682388,0.0494151264429092,0.0712422952055931,0.0069394651800394,0.0908728986978531,0.0511545687913895,0.0302866101264954,0.0854786932468414,0.0631889775395393,0.0377856232225895,-0.0606739148497581,0.0721036568284035,0.0459085367619991,0.0804645791649818,0.0371322594583035,0.0673236027359962,-0.0198246948421001,-0.0356010086834431,0.0953848883509636,0.0188797768205404,0.0583570562303066,0.0928252264857292,0.0383630245923996,-0.0219277963042259,0.0882524847984314,0.0817477181553841,-0.0150409201160073,0.0279285758733749,-0.0317077487707138,-0.0427273586392403,-0.0061291712336242,-0.0250123385339975,-0.0439378842711449,0.0838533639907837,0.0542891845107079,0.0518712289631367,-0.0039498591795564,0.0349875092506409,-0.0057786609977484,0.0627612173557281,0.0121799409389496,0.0799417197704315,0.0379850044846535,0.0717027932405472,0.0034530195407569,0.1084682345390320,0.0173173062503338,0.0093705039471388,0.0453936904668808,0.0793379768729210,-0.0742081403732300,-0.0137224216014147,0.0434262566268444,-0.0045903678983450,0.0706883072853088,0.0963857248425484,-0.0754656866192818,0.0810163319110870,-0.0706530585885048,0.0003155504236929,-0.0344915948808193,0.0660312920808792,0.0067577348090708,0.0195835344493389,0.0523882880806923,0.1132204085588455,0.0256834570318460,0.0089329145848751,0.0551472418010235,-0.0374933369457722,-0.0646597892045975,-0.0252682734280825,0.0419982783496380,-0.0394312627613544,0.0510481484234333,-0.0464571528136730,-0.0350292921066284,0.1149808093905449,0.0256997719407082,-0.0567349568009377,0.0710398927330971,-0.0621328353881836,0.0308035966008902,0.1092661023139954,-0.0676756203174591,-0.0081447577103972,0.0748701542615891,0.0802302435040474,-0.0047825016081333,0.0974242538213730,-0.0567478127777576,-0.0630263984203339,0.0329512245953083,0.0492452792823315,0.0398665778338909,0.0107654435560107,0.0607458725571632,0.0545295402407646,-0.0100478595122695,0.0516913942992687,0.0393179543316364,0.0763132125139236,-0.0149748641997576,0.0076476144604385,0.0406263992190361,0.0225250553339720,-0.0841548070311546,0.0561612062156200,-0.0670027285814285,0.0961579084396362,-0.0241146832704544,0.0218502301722765,-0.0592805407941341,0.0581271536648273,0.0287212487310171,0.0103027690201998,0.0722436606884003,0.1206828802824020,0.0667609572410583,-0.0834181308746338,-0.0554091408848763,0.0454171523451805,-0.1001325026154518,0.0732481181621552,-0.0490814857184887,-0.0869042649865150,-0.0161811485886574,-0.0030989870429039,-0.1174406260251999,-0.0328180566430092,0.0129218157380819,-0.0219157058745623,0.0246495828032494,0.0157647226005793,-0.0956981852650642,0.0738321468234062,0.0432761535048485,-0.0420069918036461,-0.0109343035146594,-0.0622841529548168,-0.0222997050732374,-0.0102709680795670,-0.0476702935993671,-0.0927105918526649,0.0711521357297897,-0.0571041442453861,-0.0168949421495199,0.0856430083513260,0.0081052696332335,-0.0839005187153816,0.0551491864025593,0.0197921637445688,-0.0295408330857754,0.0067189191468060,-0.0642384588718414,0.0606939047574997,-0.0307055376470089,-0.0326710864901543,-0.0408995412290096,0.0437813960015774,-0.0307252854108810,0.0123872132971883,0.0368035510182381,0.0360200032591820,-0.0068244431167841,0.0672422572970390,0.0377158261835575,0.0552274137735367,0.0627085119485855,-0.0713331848382950,0.0071232407353818,0.0095296837389469,-0.0363264195621014,-0.0630937740206718,0.0926485061645508,-0.0297324173152447,0.0260937809944153,-0.0544952116906643,-0.0511676669120789,-0.0643781870603561,-0.0139809381216764,-0.0807270705699921,-0.0533809885382652,-0.0352846533060074,-0.0404211059212685,-0.0125436903908849,0.0411906726658344,0.0212181359529495,0.0388855338096619,-0.0481691323220730,-0.0548225529491901,-0.0423135533928871,0.0313377939164639,0.0311197321861982,-0.0119864111766219,-0.0569685921072960,0.0919556245207787,0.0116949453949928,0.0935746431350708,-0.0441856868565083,-0.0182015877217054,-0.0009159757755697,0.0710097476840019,-0.0667677298188210,-0.0099880304187536,0.0332191102206707,-0.0438953600823879,-0.0545958317816257,0.0883381217718124,-0.0606668367981911,0.0377290807664394,0.0562269389629364,0.0321690514683723,-0.0277954414486885,0.0086746728047729,-0.1126707568764687,0.0053293337114155,0.0041952552273870,-0.0214072559028864,-0.0560505054891109,0.1005277931690216,-0.0629973188042641,0.0656908005475998,-0.0529182963073254,-0.0811150297522545,0.0193013101816177,0.0392348878085613,-0.0649081915616989,-0.0192094724625349,-0.0501566790044308,-0.0085766250267625,-0.0419788286089897,0.0809349492192268,-0.0670085623860359,0.0168536305427551,-0.0756158307194710,0.0246184207499027,-0.0756901949644089,0.1300733089447021,0.0172230508178473,0.0656642988324165,0.0370826460421085,-0.0534601658582687,-0.0297798868268728,0.0834132730960846,0.0308120269328356,0.0332385636866093,0.0039210803806782,-0.0550195835530758,-0.0055232965387404,0.1217374280095100,0.0119702648371458,-0.0196666046977043,-0.0595147758722305,-0.0675673037767410,-0.0061195208691061,0.1162759959697723,-0.0643142163753510,0.0352782830595970,-0.0634417012333870,-0.0687986612319946,-0.0400942191481590,0.0724482983350754,0.0283787269145250,0.0962602794170380,0.0298266578465700,-0.1114563941955566,-0.0021161192562431,0.0713469907641411,0.0358682386577129,0.0139004997909069,-0.0079791685566306,-0.0667950883507729,-0.0261173471808434,-0.0538319423794746,0.0498474948108196,0.0032721913885325,-0.0236502401530743,-0.0750453099608421,-0.0231555495411158,-0.0095440549775958,0.0302278622984886,0.0661272630095482,-0.0079446444287896,-0.0254478994756937,0.0301201082766056,-0.0191937088966370,0.0324328057467937,-0.0512916557490826,-0.0827604681253433,0.0085850320756435,-0.0598479397594929,0.0337611436843872,0.0487218275666237,-0.0446355678141117,-0.0479637719690800,0.0240587331354618,-0.0369218327105045,0.0669529214501381,0.0174888446927071,0.0817758068442345,0.0641385018825531,0.0049901125021279,0.0359156988561153,0.0555247887969017,0.0619253665208817,0.0564295239746571,-0.0381229743361473,0.0420039221644402,0.0388052538037300,0.0315566472709179,0.0862345322966576,0.0833669528365135,-0.0026763540226966,-0.0580116957426071,-0.0617593377828598,-0.0471297837793827,-0.0142002580687404,-0.0436546616256237,-0.0484518334269524,-0.0673335492610931,-0.0785123482346535,-0.0589998625218868,0.0148147149011493,-0.0488348901271820,-0.0301350615918636,-0.0251657459884882,0.0388808138668537,-0.0506540350615978,0.1030360683798790,0.0222615506500006,-0.0114563116803765,-0.0474418587982655,-0.0879175290465355,-0.0198421645909548,0.0792967751622200,0.0714764669537544,-0.0688659474253654,-0.0394903011620045,-0.0478843338787556,0.0426912270486355,-0.0319260396063328,-0.0010494736488909,-0.0352490916848183,-0.0288784336298704,-0.0378230214118958,0.0628706216812134,-0.0509941279888153,-0.0127742998301983,0.0163226593285799,-0.0723402500152588,-0.0604358948767185,0.0141927246004343,0.0439565107226372,0.0367197319865227,-0.0670308619737625,0.0605191029608250,-0.0394351929426193,-0.0126796048134565,-0.0501615814864635,-0.0615844391286373,0.0169161353260279,-0.0533757470548153,-0.0369596816599369,-0.0186456721276045,-0.0427137576043606,0.0567310340702534,0.0377391390502453,0.0211115367710590,-0.0337562784552574,-0.0360389947891235,0.0090248202905059,-0.0416743271052837,0.0522001869976521,-0.0683015435934067,0.0311735775321722,0.0489750429987907,0.0635827779769897,0.0491740591824055,-0.0181107521057129,0.0187132414430380,-0.0899025946855545,0.0690025612711906,0.1242056936025620,-0.0680236294865608,-0.0879848897457123,-0.0065608420409262,-0.0682383105158806,-0.0485346317291260,0.1103949472308159,-0.0141485026106238,-0.0246612671762705,-0.0296523757278919,-0.0437080264091492,-0.0519539117813110,0.1095800399780273,0.0185415782034397,0.0680016726255417,0.0300955418497324,0.0440706610679626,-0.0621958449482918,0.0382482074201107,0.0325893498957157,-0.0752859786152840,0.0135384527966380,0.0208198800683022,-0.0407961420714855,0.1291217207908630,-0.0128455301746726,-0.0839693471789360,0.0089942794293165,-0.0152262374758720,-0.0145970080047846,0.1116629242897034,0.0292332563549280,-0.0224666688591242,-0.0758420154452324,0.0646275952458382,-0.0874010697007179,0.0542605668306351,-0.0266788583248854,0.0668245181441307,-0.0184162650257349,0.0128984544426203,-0.0059007303789258,-0.0187604837119579,-0.0443418435752392,0.0549949444830418,-0.0251846350729465,0.0148872723802924,0.0569063387811184,0.0483723431825638,-0.0259360037744045,0.0083715440705419,-0.0615402162075043,0.0550737790763378,-0.0815588012337685,0.0179951414465904,-0.0113349296152592,0.0497569106519222,0.0894015878438950,0.0547050014138222,0.0195762515068054,0.0908022075891495,-0.0267947353422642,-0.0564659014344215,0.0389094948768616,-0.0103670749813318,0.0162408407777548,-0.0082215815782547,0.0892784595489502,0.0381430685520172,-0.0025566562544554,0.0198679082095623,0.0633346140384674,0.0154395457357168,0.0579405538737774,-0.0821485295891762,0.0969862416386604,-0.0070387925952673,0.0253193639218807,-0.0290209185332060,0.0452356189489365,-0.0373661369085312,-0.0500127859413624,-0.0539992414414883,0.0508598983287811,0.0597835220396519,0.0075358934700489,0.0745094418525696,0.0606224648654461,0.0689802244305611,0.0015751961618662,0.0352673046290874,-0.0366909690201283,-0.0613846704363823,0.0993499830365181,-0.0618026256561279,0.0217077173292637,0.0309328734874725,0.0939309448003769,0.0274397339671850,-0.0395108424127102,0.0284900851547718,-0.0665728896856308,0.0527498647570610,0.0331532433629036,0.0226720105856657,0.0930750444531441,0.0596175529062748,-0.0469028316438198,0.0217937901616096,-0.0275703985244036,-0.0231863483786583,-0.0517841652035713,0.1080417335033417,0.0166808571666479,0.0511231794953346,-0.0069762249477208,-0.0572439730167389,0.0162145607173443,0.0263806115835905,-0.0395210906863213,-0.0406194105744362,0.0658515095710754,-0.0388220325112343,0.1026146560907364,0.0083843702450395,-0.0574555099010468,-0.0219994708895683,0.0907737091183662,0.0180271528661251,0.0518656745553017,0.0044912360608578,-0.0241746921092272,0.0816723406314850,0.0176199488341808,0.0580509752035141,-0.0259940978139639,0.0434111915528774,-0.0075076348148286,0.0676118209958076,-0.0066472976468503,-0.0013670435873792,0.0550577007234097,0.0219610836356878,0.0026538174133748,-0.0329300016164780,0.0110144913196564,-0.0734589397907257,0.0268942546099424,-0.0314723476767540,0.0733534023165703,-0.0557719655334949,-0.0210978090763092,0.0529866963624954,0.0056143053807318,0.0455931909382343,0.0119838034734130,-0.0257136560976505,0.1002258881926537,0.0212410986423492,0.0511128492653370,0.0566815994679928,-0.0488716326653957,0.0378339998424053,-0.0362747199833393,-0.0437364652752876,0.0521738305687904,0.0744386538863182,0.0812918469309807,-0.0395842380821705,-0.0007828191737644,-0.0237701777368784,0.0496965236961842,-0.0955602750182152,-0.0227679032832384,-0.0238093901425600,0.0439515039324760,-0.0781458839774132,0.1014737412333488,0.0273487772792578,-0.0445552244782448,0.0682482197880745,0.0955652892589569,0.0021880390122533,0.0189011003822088,-0.1216941326856613,0.0417754314839840,-0.0674820765852928,0.0407433249056339,-0.0475465357303619,-0.0616440847516060,-0.0152012901380658,-0.0457544624805450,-0.0246416144073009,-0.0975122153759003,0.0267453119158745,-0.0295402556657791,-0.0104060675948858,0.0047868541441858,0.0313732698559761,-0.0972552075982094,-0.0151919992640615,-0.0328957587480545,-0.0411154627799988,-0.0550542101264000,-0.0175709128379822,-0.0744067579507828,-0.0312446821480989,0.0109549462795258,-0.0829591751098633,0.0045659230090678,-0.0734609290957451,-0.0973957404494286,-0.0205948799848557,-0.0176152382045984,-0.0348288267850876,0.0200720615684986,-0.0405159816145897,-0.0685291141271591,0.0396449081599712,-0.0154894264414907,-0.0043090926483274,0.0833065807819366,0.0771482437849045,-0.1024989560246468,0.0799885988235474,-0.0491041243076324,-0.0298994705080986,0.0497577451169491,-0.0124203301966190,-0.0806416571140289,0.0531407259404659,0.0481249913573265,0.0416163913905621,-0.0126988142728806,-0.0202636197209358,-0.0952780544757843,0.0420917272567749,0.0376876145601273,-0.0482159741222858,0.0858430638909340,-0.0320595763623714,-0.1034619137644768,0.0427147634327412,0.0302147548645735,-0.0021448573097587,0.0839018225669861,0.0886810421943665,0.0281950812786818,0.0622239187359810,0.0485227704048157,0.0054830312728882,0.0854243338108063,0.0967442169785500,-0.1022291108965874,-0.0376980230212212,-0.0302685778588057,-0.0834461227059364,-0.0036700633354485,0.0381146743893623,-0.0828121453523636,-0.0068345363251865,-0.0644345283508301,0.0204109866172075,0.0055778850801289,0.1010711491107941,-0.1049470603466034,0.0305619444698095,-0.0878927782177925,-0.0727346390485764,-0.0436096079647541,0.0496211014688015,-0.0382027886807919,-0.0017948423046619,0.0085300765931606,-0.0173604767769575,0.0363454632461071,0.0164217483252287,-0.0919848904013634,-0.0192361008375883,0.0452097207307816,0.0275363400578499,0.0234981738030910,0.0977646708488464,-0.0293207243084908,0.0763961970806122,0.0692308098077774,0.0401935614645481,0.0606013797223568,0.0119990762323141,-0.0502795092761517,-0.0199239477515221,0.0401433557271957,-0.0733102336525917,-0.0646674707531929,0.1105324849486351,-0.0428552404046059,0.0533766709268093,-0.0498815886676311,0.0093970689922571,-0.0847483873367310,-0.0333552472293377,-0.1098402813076973,0.0296562593430281,0.0462355650961399,0.0404405780136585,-0.0475586950778961,0.0795134454965591,-0.0602064132690430,0.0012536710128188,0.0049182004295290,0.0796771422028542,-0.0301058329641819,0.0416050404310226,-0.0693439245223999,0.0956104546785355,-0.0353332720696926,0.0812226682901382,-0.0777863487601280,0.0120910322293639,0.0095744319260120,-0.0547678656876087,0.0438004173338413,-0.0455040633678436,0.0223579443991184,-0.0248776506632566,0.0052648768760264,0.0342334471642971,0.0541682876646519,0.1093749701976776,-0.0810104385018349,0.1029809936881065,-0.1093979552388191,0.0409010760486126,0.0340945422649384,0.1014440134167671,0.0602656006813049,-0.0195207409560680,0.0308631174266338,-0.0539200082421303,0.0043879821896553,-0.0117629766464233,0.0523818731307983,0.0416510812938213,0.0311718974262476,0.0498465895652771,0.1046804189682007,-0.0707153975963593,0.0774873122572899,-0.0712411478161812,0.0242408588528633,0.0284974128007889,0.0036970865912735,-0.0742737501859665,-0.0447669513523579,-0.0454098209738731,-0.0485325790941715,0.0660470947623253,0.1243666633963585,-0.0725827217102051,0.0642091110348701,0.0654079020023346,-0.0254466459155083,0.0447008162736893,0.0540436320006847,0.0178458057343960,0.0308648906648159,0.0161820538341999,0.0345967672765255,0.0268746409565210,0.1042066439986229,-0.0437740609049797,-0.0050753261893988,0.0581162385642529,0.0506060607731342,-0.0661434233188629,0.0972624644637108,0.0834452882409096,0.0449149385094643,0.0442056134343147,-0.0164333581924438,0.0774635821580887,0.0406261719763279,0.0031811611261219,0.0717152431607246,-0.0786214470863342,0.0868805125355721,0.0400604456663132,0.0845538526773453,-0.0611838102340698,0.0595081895589828,-0.0376487225294113,-0.0044895689934492,-0.0460097230970860,0.1139158830046654,-0.0203876700252295,0.0275231227278709,-0.0632927045226097,-0.0511822812259197,0.0612185895442963,0.0942687690258026,-0.0266566649079323,0.0281094908714294,0.0781961232423782,0.0671354830265045,0.0280652008950710,0.0900650098919868,-0.0556068643927574,0.0075642284937203,0.0514648631215096,0.0864666476845741,-0.0600488781929016,0.0472160689532757,-0.0209035892039537,0.0589038655161858,-0.0645584315061569,0.0845958068966866,-0.0071552577428520,0.0227165203541517,0.0060700625181198,-0.0321324765682220,0.0506390966475010,-0.0455831438302994,0.0650770962238312,-0.0212422739714384,-0.0042265648953617,-0.0381345897912979,0.0349251292645931,-0.0217174049466848,0.0516145154833794,0.0176642015576363,-0.0183286238461733,0.0221356321126223,-0.0078451894223690,0.0056920265778899,0.0317316055297852,0.0256159845739603,0.0749458000063896,0.0651920735836029,0.0142994830384851,-0.0559552945196629,0.0542819164693356,0.0136509612202644,-0.0482670143246651,0.0881350710988045,-0.0891509354114532,-0.0469029471278191,-0.0270711574703455,0.0124490922316909,0.0064835422672331,-0.0268090218305588,0.0344107635319233,-0.0342345982789993,0.0268955677747726,-0.0245725791901350,-0.0796946361660957,0.0074077821336687,-0.0358940064907074,-0.0763977244496346,0.0763310641050339,0.0851927921175957,-0.0618554539978504,0.0743937939405441,0.0235505886375904,-0.0074703334830701,-0.0615957602858543,0.0760239884257317,0.0321175232529640,-0.0156048806384206,0.0256204847246408,0.0691399201750755,-0.0455653741955757,0.0066993744112551,-0.0098224245011806,0.0052046598866582,0.0266137216240168,0.0131788281723857,-0.0245998706668615,0.0285952407866716,0.0115296635776758,-0.0316602773964405,-0.1163793802261353,-0.0029848874546587,-0.0372965708374977,0.0656279027462006,-0.1194384545087814,-0.0237096045166254,0.0814813598990440,-0.1103083118796349,0.0805858820676804,-0.0886267274618149,0.0295844674110413,-0.0568244047462940,0.0085978424176574,-0.0062851370312274,-0.0054015540517867,-0.0410376414656639,-0.0231888256967068,-0.0393859669566154,-0.0068945549428463,-0.0376671589910984,0.0320229232311249,-0.0975889787077904,0.0502316392958164,-0.0721421390771866,0.0482626482844353,-0.0812056586146355,0.0806003287434578,-0.0054805427789688,0.0237321387976408,-0.0613781847059727,-0.0532295405864716,-0.0709974244236946,-0.0559504367411137,-0.0981193408370018,-0.0265140719711781,0.0687134116888046,0.0704001039266586,-0.0770592615008354,0.0568910688161850,0.0527973659336567,-0.0488891564309597,-0.0632673278450966,0.0555892698466778,0.0055149830877781,-0.0135208293795586,0.0415464192628860,0.0216292850673199,-0.0488486215472221,-0.0100198201835155,-0.0714287385344505,-0.0257157590240240,-0.0964147672057152,-0.0757966488599777,0.0150297237560153,0.0584302917122841,-0.0218473989516497,-0.0318711325526237,-0.0917941182851791,0.0309370402246714,-0.0145563976839185,-0.0088636912405491,0.0174336582422256,-0.0228459350764751,0.0502878576517105,-0.0645113661885262,-0.0425167605280876,-0.0053784977644682,-0.0322994627058506,-0.0727192014455795,-0.0188177991658449,-0.0314614064991474,0.0471872463822365,0.0719915330410004,0.0485248267650604,0.0835641771554947,0.0089142397046089,0.0006752714398317,0.0488618798553944,-0.0244855228811502,-0.0397865027189255,0.0032157225068659,-0.0425581075251102,-0.0006475684931502,-0.0163790751248598,0.0279189273715019,-0.0356597639620304,0.0396444536745548,-0.0940321832895279,-0.0224896743893623,-0.0171323250979185,0.0606697611510754,0.0451311878859997,0.0747206583619118,-0.0149003164842725,0.0286972075700760,0.0564335770905018,-0.0716641694307327,-0.1083693802356720,-0.0568466596305370,-0.0151046961545944,-0.0602393634617329,-0.0328114256262779,0.0011308537796140,-0.0821847915649414,0.0444557666778564,-0.0331427976489067,0.0214575175195932,0.0540905781090260,0.0627438053488731,-0.0626481920480728,0.0571228712797165,-0.0372661724686623,-0.0589650385081768,0.0021934153046459,-0.0413163155317307,-0.0650966316461563,-0.0627303645014763,-0.0757680684328079,0.0517473593354225,-0.0166240613907576,-0.0352659709751606,-0.0321802049875259,-0.0423264503479004,0.0501981265842915,0.0120299449190497,0.0337968878448009,-0.0294323004782200,-0.0532167106866837,0.0720342174172401,0.0314545445144176,0.0387554951012135,-0.0748456567525864,-0.0528351217508316,-0.0225492101162672,0.0167088564485312,-0.0315324179828167,0.0511777848005295,-0.0352810844779015,-0.0200821310281754,-0.0562406852841377,0.0694157257676125,-0.0152858067303896,-0.0278958752751350,-0.0300862118601799,0.0274021178483963,-0.0105340527370572,-0.0588812567293644,-0.0003021429583896,0.0073668188415468,0.0087693408131599,-0.0268798973411322,0.0251941420137882,0.0051381224766374,-0.0494286976754665,-0.0114912437275052,-0.0539370030164719,-0.1117515042424202,0.0451842769980431,0.0726256221532822,0.0329086855053902,0.0702799633145332,-0.0261910613626242,-0.0633757859468460,0.0427592620253563,-0.0097849750891328,0.0175979025661945,0.0783049836754799,-0.0419796146452427,-0.0048184115439653,0.0073014567606151,0.0489606224000454,0.0787781104445457,-0.0330727547407150,-0.0018501513404772,-0.0060977293178439,-0.0792906582355499,0.0162708461284637,0.0706409960985184,0.0628101453185081,0.0058405976742506,-0.1165979653596878,-0.0741614028811455,-0.0036305382382125,-0.0150576913729310,0.0073156948201358,0.0636271163821220,-0.0784645900130272,0.0047943526878953,0.0131145445629954,-0.0052197203040123,0.0585739538073540,-0.0048234495334327,-0.0749209597706795,0.0172609109431505,-0.0092816296964884,-0.0540765225887299,0.0047896797768772,0.0584614314138889,0.0179437007755041,-0.0694413036108017,-0.0639267489314079,0.0005191694363020,0.0171292871236801,0.0052494807168841,0.0449450835585594,0.0445418134331703,-0.0421148911118507,0.0891226828098297,0.0385850779712200,0.0713035315275192,0.0216040872037411,0.0750395879149437,0.0529408790171146,-0.0167401190847158,0.0624397844076157,0.0876317843794823,0.0216674488037825,0.0006822280702181,0.0736846476793289,-0.0516110397875309,-0.0396231450140476,-0.0361555367708206,0.0006768723251298,0.0198573172092438,-0.0271953921765089,0.0734737366437912,0.0515629574656487,-0.0393450371921062,-0.0383607670664787,0.0392228066921234,0.0674504935741425,-0.0063439900986850,-0.0365091338753700,-0.0491087548434734,-0.0926196128129959,0.0032401261851192,-0.0150788752362132,0.0994246304035187,0.0395000055432320,0.0170936919748783,0.0358720347285271,0.0526204071938992,0.0413935855031013,-0.0452935285866261,0.0372956469655037,-0.0241098254919052,-0.0814867541193962,0.0490322783589363,-0.0468811914324760,-0.0504808574914932,-0.0343291833996773,-0.0282070897519588,-0.0763795226812363,-0.0611819773912430,-0.0372321791946888,0.0299096554517746,-0.0401752740144730,0.0842069908976555,-0.0446964353322983,0.0710479617118835,0.0182203799486160,0.0315091721713543,-0.0713122114539146,-0.0135469585657120,-0.0212139301002026,-0.0055562602356076,-0.0475569032132626,-0.0369681939482689,-0.0374246761202812,0.0173207726329565,-0.0347192324697971,-0.0285937115550041,-0.0566467083990574,0.0501800961792469,-0.0253220107406378,0.0503387860953808,0.0130110904574394,-0.0109876673668623,-0.0314577892422676,0.0364635847508907,0.0539844147861004,0.0946605205535889,-0.1202174499630928,-0.0078120757825673,-0.0849785059690475,-0.0498589389026165,0.0346983931958675,0.0150738898664713,-0.0533372797071934,0.0421736612915993,0.0284421164542437,0.0591051355004311,0.0335317887365818,-0.0153004033491015,-0.0754560232162476,0.0386548638343811,0.0589907281100750,0.0169431120157242,-0.0542435348033905,-0.0336123816668987,0.0253771636635065,-0.0246058795601130,-0.0730729475617409,-0.0541906543076038,-0.0900003686547279,-0.0629642680287361,-0.0236921198666096,0.0037813067901880,-0.0496110282838345,-0.0456256791949272,0.0078629134222865,0.0062679108232260,-0.0123519264161587,-0.0676299557089806,-0.0456503778696060,0.0535327382385731,0.0373921431601048,0.0291918553411961,-0.0439159013330936,0.0603610314428806,-0.0156612657010555,0.0272514577955008,-0.0086870416998863,-0.0359926782548428,-0.0829432234168053,-0.0366913713514805,0.0528841614723206,-0.0060171443037689,0.0012208757689223,-0.0083603980019689,-0.1179605349898338,0.0460476800799370,0.0562349222600460,0.0796135365962982,0.0286331214010715,-0.0285485610365868,-0.0511660091578960,0.0848728269338608,-0.0653535947203636,0.0752849727869034,-0.0036910120397806,0.0501294545829296,-0.0852938145399094,-0.0606812871992588,-0.0643724203109741,0.0098157161846757,0.0164413824677467,0.0523858033120632,-0.1170089319348335,0.0587679967284203,-0.0160397738218307,0.0094282552599907,0.0290228314697742,-0.0333232581615448,-0.0398305878043175,0.0310450997203588,-0.0223387908190489,-0.0622081160545349,-0.0675071924924850,-0.0150545053184032,0.0150058297440410,0.0081968698650599,0.0280606076121330,0.0827467814087868,0.0206018462777138,-0.0276859365403652,-0.0152167705819011,-0.0035186691675335,0.0177266616374254,0.0296107307076454,0.0318266451358795,0.0140753882005811,-0.1116231605410576,-0.0457766205072403,-0.0402568578720093,0.0812593474984169,0.0203605554997921,0.0448264367878437,-0.0830265879631042,0.0383598841726780,-0.0400619953870773,0.0544822849333286,0.0760496333241463,0.0696956664323807,0.0396769419312477,0.0133365364745259,-0.0090916845947504,-0.0525318197906017,0.0703857913613319,0.0520175062119961,-0.0992350578308105,-0.0389113798737526,0.0891703888773918,0.0580406747758389,-0.0303729120641947,-0.0865035578608513,-0.0389056839048862,0.0249120723456144,0.0794626772403717,-0.0028599055949599,-0.0116422511637211,0.0697143897414207,0.0078823501244187,0.0093736536800861,-0.0408659838140011,0.0433066636323929,-0.0176945757120848,0.0533914640545845,-0.0974895358085632,-0.0339513011276722,0.0305461212992668,-0.0386984981596470,0.0645966008305550,-0.0643202140927315,-0.0202018823474646,-0.0598988756537437,0.0758812278509140,0.0441171750426292,0.0743378549814224,0.0443932935595512,-0.0756701380014420,0.0184467229992151,0.0719914659857750,0.0312902256846428,0.0418360419571400,-0.0567102283239365,-0.0406978651881218,0.0169227197766304,0.0237627234309912,0.0590804256498814,-0.0802402645349503,0.0242613591253757,0.0179286077618599,-0.0396452769637108,-0.0649069547653198,0.0080689080059528,0.0594810172915459,-0.0523771829903126,-0.0907228812575340,0.0596468895673752,0.0935803577303886,-0.0512769669294357,-0.0451501272618771,-0.0751397013664246,0.0412221439182758,0.0211927201598883,0.0438172034919262,-0.0556392073631287,-0.0883767753839493,-0.0782770663499832,0.0314590334892273,0.0305491629987955,-0.0411711148917675,0.0756925567984581,-0.1279182434082031,-0.0065423022024333,0.0382079370319843,-0.0105471620336175,-0.0336176455020905,-0.0830389484763145,-0.0839553698897362,0.0740050897002220,0.0714850351214409,0.0682190358638763,-0.1294514387845993,0.0567691326141357,-0.1193937063217163,-0.0181800425052643,0.0878629907965660,-0.0354402996599674,0.0247227419167757,-0.0591408945620060,-0.0129628386348486,0.0139302974566817,0.0189244281500578,-0.0541007928550243,-0.0279168635606766,-0.0892178639769554,-0.1163377612829208,0.0241162087768316,-0.0568386800587177,-0.0536504425108433,-0.0448894947767258,-0.0253005921840668,-0.0616227760910988,-0.0145296743139625,-0.0491121001541615,0.0355992987751961,-0.0382815785706043,0.0326214991509914,-0.0642796084284782,0.0865413174033165,0.0108916722238064,-0.0800475999712944,-0.0655923038721085,-0.0101876705884933,-0.0754062309861183,0.0018207967514172,-0.0660573393106461,-0.0347284823656082,0.0066616390831769,0.0487107485532761,-0.0634665563702583,-0.0052212146110833,-0.0313239842653275,-0.0354229658842087,-0.1230679824948311,-0.0723571181297302,0.0353501960635185,0.0798697099089622,-0.0334396436810493,-0.0476611927151680,-0.0645649433135986,-0.0247334782034159,-0.0025271733757108,0.0498435609042645,0.0446392819285393,0.0291050411760807,-0.1140213310718536,-0.0437990278005600,0.0271873101592064,0.0182302314788103,-0.0551926530897617,0.0318673998117447,-0.0716249495744705,-0.0079324357211590,0.0490675121545792,-0.0743199661374092,-0.0230209492146969,0.0552207902073860,-0.1163456365466118,-0.0096216807141900,-0.0138370534405112,0.0095352763310075,0.0488822422921658,-0.0764170438051224,-0.0828057825565338,-0.0205068401992321,0.0160186551511288,0.0616899728775024,-0.0281333774328232,-0.0789748206734657,-0.0125563386827707,0.0286699086427689,0.0192905161529779,-0.0165701359510422,-0.0925979241728783,-0.0968680530786514,-0.0483802892267704,-0.0201163403689861,0.0251698959618807,-0.0230120848864317,0.0401344634592533,-0.0243176426738501,-0.0570173673331738,0.0494352318346500,0.0519296824932098,-0.0089149819687009,0.0352719947695732,-0.0871903672814369,-0.0048933564685285,0.0231649857014418,0.0375130623579025,-0.0710815265774727,-0.0446585714817047,-0.0627843439579010,-0.0890927389264107,-0.0553204007446766,-0.0650964900851250,0.0534368492662907,0.0672258585691452,-0.0417117141187191,0.0189462695270777,0.0285812411457300,-0.0204567145556211,0.0758776739239693,-0.0343624278903008,0.0407190434634686,-0.0032104218844324,-0.0604976154863834,-0.0644552856683731,-0.0170815680176020,0.0074886130169034,0.0489382818341255,-0.1291518062353134,0.0307865776121616,0.0363744795322418,0.0975037142634392,0.1106457039713860,-0.0123459883034229,-0.0715513229370117,-0.0267158839851618,0.0393105633556843,0.0089065292850137,0.0636167302727699,-0.1026439517736435,-0.0685317441821098,-0.0062776682898402,0.0770458802580833,-0.0411819964647293,0.0129324719309807,-0.1029077321290970,-0.1199858188629150,-0.0392728671431541,-0.0255604647099972,-0.0348110273480415,0.0330672077834606,-0.0544013455510139,0.0783742219209671,-0.0007508654962294,-0.0331436358392239,0.0488512516021729,-0.1017930358648300,0.0198713708668947,-0.0400334298610687,0.0213596671819687,-0.0926310047507286,0.0225145202130079,-0.0342462696135044,-0.0032073862385005,-0.0537899695336819,0.1104445829987526,0.0110437199473381,0.0625866129994392,-0.0140467463061213,-0.0184726696461439,0.0300696771591902,0.0507072210311890,-0.0019388679647818,0.0386785157024860,0.0553239174187183,0.0375278741121292,0.0851267799735069,0.0984064713120461,-0.0373958349227905,0.0733939185738564,0.0279096458107233,0.0527990423142910,0.0225254166871309,0.0801687613129616,-0.0415079370141029,0.0401000194251537,0.0077840168960392,0.0302551221102476,-0.0097910892218351,0.1081642508506775,0.0552474297583103,0.0852255597710609,-0.0203697457909584,-0.0542817004024982,0.0641274005174637,0.0021752733737230,0.0345480144023895,-0.0123697090893984,0.0469739772379398,-0.0052849524654448,0.0491805151104927,0.0610633231699467,0.0763182640075684,-0.0110575519502163,-0.0809664055705070,-0.0442978516221046,0.0136993238702416,0.0002234554121969,0.0062442002817988,0.0077323601581156,0.0403469465672970,0.0136236371472478,-0.0423568002879620,0.0948214083909988,-0.0426710285246372,0.0226395055651665,-0.0811426714062691,0.0803345814347267,-0.0491174794733524,-0.0436149276793003,0.0590828098356724,-0.0331818982958794,-0.0932470560073853,0.0622812248766422,-0.0364062674343586,0.0344909988343716,0.0503728576004505,-0.0781906694173813,0.0261480044573545,0.0717681571841240,0.0341885983943939,0.0566595792770386,-0.0408153161406517,-0.0222187954932451,-0.0877414047718048,-0.0208139214664698,-0.0579161383211613,0.0670836195349693,-0.0445343218743801,-0.0224538631737232,-0.0914167761802673,-0.0807743296027184,0.0048315594904125,0.0874418169260025,0.0366992652416229,-0.0796122029423714,-0.0470213964581490,-0.0761826038360596,0.0258429236710072,0.0248910374939442,-0.0235451664775610,0.0380279310047626,0.0440985374152660,0.0731258541345596,-0.0446250550448895,0.0415761098265648,0.0618164278566837,0.0107572423294187,-0.0853505358099937,0.0209152828902006,0.0926764756441116,-0.0108517948538065,0.0686627924442291,-0.0369452163577080,-0.0716822370886803,-0.0484786592423916,0.0458834134042263,-0.0412465371191502,-0.0444097928702831,-0.0359728969633579,0.0547929108142853,-0.0814398750662804,-0.0512934625148773,-0.0338425673544407,-0.0378915742039680,0.0051649422384799,-0.0568109378218651,-0.0082657150924206,0.0620726495981216,-0.0144725777208805,-0.0935845226049423,0.0761042833328247,-0.0906801819801331,0.0172175187617540,0.0970732718706131,0.0020760931074619,-0.0672574415802956,0.0245542079210281,-0.0839545428752899,-0.0045182784087956,0.0229523908346891,0.0807593166828156,-0.1130271255970001,-0.0176369231194258,-0.0446144901216030,0.0331439971923828,0.0466331280767918,-0.0434452034533024,-0.1310994923114777,0.0821049064397812,0.0216444358229637,-0.0383502021431923,-0.0147365834563971,0.0609048828482628,-0.0216677654534578,0.0673914849758148,-0.0263889003545046,-0.0519137978553772,-0.0159070864319801,0.1358039677143097,0.0583501122891903,0.0467036962509155,-0.0128397559747100,0.0401197373867035,0.0207240879535675,0.0389741659164429,-0.0783651769161224,0.0267589222639799,-0.0553573630750179,0.0800119936466217,-0.0813080444931984,0.1358391791582108,-0.0842772796750069,0.0373650491237640,0.0516092292964458,0.0714678540825844,0.0562162287533283,0.1237012371420860,-0.0767685845494270,0.0457039102911949,0.0702065229415894,0.0969705507159233,0.0417340435087681,0.0701267868280411,0.0311337187886238,0.0627598613500595,-0.0167143642902374,0.0701777935028076,-0.0156798399984837,0.0532176680862904,0.0308938641101122,-0.0479884073138237,-0.0388767533004284,0.0378333069384098,-0.0072987135499716,-0.0065730777569115,0.0042304806411266,-0.0411647409200668,0.0429555140435696,0.0033525272738189,0.0020740346517414,0.0222192369401455,0.0359213948249817,-0.0091074900701642,0.0211433451622725,0.0799691528081894,-0.0780568048357964,0.0635015964508057,-0.0531261637806892,0.0549762547016144,0.0406303517520428,-0.0068713407963514,0.0666667148470879,0.0570974163711071,0.0457180738449097,0.0627081021666527,-0.0318975932896137,-0.0227634701877832,-0.0319231152534485,0.0054352036677301,-0.0792140364646912,-0.0018794231582433,0.0432902462780476,0.0051149423234165,-0.0079143671318889,0.1026023253798485,-0.0421101041138172,-0.0724072083830833,0.0808236896991730,-0.0267880000174046,-0.0172106716781855,0.0645084604620934,0.0372733213007450,0.0696537196636200,-0.0026727612130344,-0.0019273121142760,-0.0863882377743721,0.0238884128630161,-0.0003745954600163,0.0292432662099600,0.0464011356234550,0.1055681854486465,0.0125048607587814,0.1153031289577484,-0.0062289140187204,0.0143612083047628,-0.0293224919587374,0.0211850404739380,-0.0058450070209801,0.0685056298971176,0.0146184973418713,-0.0124585963785648,0.0612486563622952,-0.0194069892168045,0.0359797552227974,0.1151122227311134,-0.0190293584018946,-0.0746818110346794,-0.0008111002971418,0.0346719846129417,-0.0925724729895592,-0.0168919768184423,-0.0309325810521841,0.0458734147250652,0.0390791334211826,0.0019652720075101,-0.0091881072148681,0.0798741877079010,0.0304533801972866,-0.0408694446086884,-0.0770385190844536,-0.0221114419400692,-0.0090849818661809,0.1146844923496246,-0.0636450797319412,-0.0626127570867538,-0.0620479285717010,-0.0545469038188457,-0.0006849614437670,0.0591845028102398,0.0279003232717514,-0.0438015460968018,0.0119137363508344,0.0334639586508274,0.0379218794405460,0.0592796206474304,-0.0740812793374062,-0.0568621531128883,-0.0742844864726067,0.0887291282415390,0.0015584959182888,0.0296700280159712,-0.0361440703272820,-0.0928550362586975,-0.0759016871452332,-0.0114148883149028,0.0206732507795095,0.0910333320498466,-0.0888150334358215,0.0798452720046043,-0.0379102528095245,0.0511930473148823,0.0568291470408440,0.0618317387998104,-0.0111388815566897,0.0156216779723763,-0.0686047449707985,0.0158769078552723,-0.0365458242595196,-0.0270850174129009,-0.0161457769572735,-0.0358805768191814,0.0290575530380011,0.0636549070477486,0.0349060297012329,-0.0523955486714840,0.0274107269942760,0.0457131415605545,0.0594126358628273,0.1034744083881378,-0.0321023389697075,-0.0501974113285542,-0.0398202240467072,0.0746290162205696,-0.0082364613190293,0.1126111224293709,-0.0132440850138664,0.0265724230557680,0.0090928375720978,-0.0043858732096851,0.0656443238258362,-0.0134354336187243,0.0047285053879023,-0.0627739354968071,0.0556813739240170,-0.0635209083557129,0.0209063757210970,-0.0283866468816996,-0.0048354109749198,-0.0250482317060232,0.0082301236689091,-0.0249851848930120,-0.0787594169378281,0.0409480445086956,0.0410918481647968,0.0337122008204460,-0.0520392581820488,0.0108203962445259,-0.0425878465175629,-0.0040654307231307,-0.0698781535029411,0.0126819182187319,0.0646246224641800,-0.0136663392186165,-0.0103469798341393,0.0333099216222763,-0.0593711510300636,0.0552965067327023,0.0615563914179802,-0.0029398333281279,0.0603153072297573,0.0401148051023483,0.0327345207333565,-0.0515807978808880,0.0429044477641582,-0.0724313780665398,0.0454460941255093,0.0116993943229318,0.0452141761779785,0.0530354678630829,0.0422473326325417,0.0006730956374668,-0.0694467350840569,0.0312987752258778,-0.0313142985105515,0.0071695987135172,-0.0266221296042204,-0.0383565016090870,-0.0670140832662582,0.0669398009777069,0.0301051139831543,0.0498123876750469,-0.0280768070369959,-0.0659036859869957,0.0728978514671326,0.0688462406396866,-0.0501871332526207,-0.0377009846270084,0.0564637668430805,-0.0659334287047386,-0.0040956516750157,0.0355360880494118,-0.0605612471699715,0.0188465844839811,-0.0834389626979828,0.0342957191169262,-0.0614098384976387,-0.0517488345503807,-0.0215472634881735,-0.0571833364665508,0.0000472980682389,0.0768734961748123,0.0577076636254787,0.0261154361069202,0.0776931345462799,-0.0584915839135647,-0.0189516358077526,-0.0108965951949358,0.0866322517395020,0.0523489601910114,0.0719891712069511,0.0422677770256996,0.0316491089761257,0.0574007444083691,0.0481294393539429,-0.0175024028867483,-0.0343086980283260,-0.0572299063205719,-0.0791804343461990,0.0228444859385490,-0.0259068198502064,0.0313191488385201,-0.0475722439587116,-0.0692481696605682,-0.0203546639531851,-0.0540225245058537,-0.0020536524243653,-0.0159121416509151,-0.0096803735941648,-0.0245694313198328,-0.0063418159261346,0.0085140038281679,0.0064111929386854,0.0806661769747734,0.0830114856362343,-0.0636086687445641,-0.0490664727985859,0.0660048872232437,0.0076849879696965,0.0843478366732597,0.0673588663339615,-0.0277884658426046,-0.0290339086204767,-0.0518565662205219,0.0285038575530052,0.0465948097407818,0.0422110408544540,-0.0523212291300297,0.0145829757675529,0.0830825045704842,0.0157492253929377,0.0744895860552788,0.0748246610164642,0.0432262010872364,0.0360931009054184,0.0524157620966434,-0.0601978860795498,0.0905729159712791,0.0769530236721039,0.0113942176103592,-0.0338909924030304,0.0321916230022907,0.0663336887955666,0.0476363338530064,0.0175945609807968,0.0051566255278885,0.0427808389067650,0.0538847409188747,-0.0449991002678871,0.0454451255500317,-0.0277738384902477,-0.0467051267623901,0.0560907572507858,0.0508943647146225,-0.0422165878117085,0.0261637177318335,-0.0009466159972362,-0.0749658569693565,-0.0448464192450047,0.0193092357367277,-0.0153206307440996,-0.0619779676198959,0.0531452819705009,-0.0642853900790215,0.0341286920011044,0.0097498120740056,-0.0726948603987694,0.0657848343253136,0.0044154473580420,-0.0508725903928280,0.0426171049475670,0.0430720150470734,-0.0457536503672600,0.0815477967262268,-0.0739169940352440,0.0264657866209745,-0.0342776328325272,0.0415136180818081,-0.0337040200829506,-0.0023529010359198,0.0354803353548050,-0.0089275417849422,0.0198643188923597,0.0744182690978050,0.0745277404785156,-0.0295176561921835,-0.0170061197131872,-0.0674876719713211,-0.0319783911108971,0.0502662286162376,0.0252680890262127,-0.0559297092258930,0.0089174527674913,0.0269514154642820,-0.0860377252101898,0.0488282293081284,-0.0450118593871593,-0.0074804183095694,0.0142012927681208,-0.0699878111481667,0.0553159676492214,0.0719028487801552,-0.0226574037224054,-0.0430470816791058,-0.0844663605093956,0.0330524891614914,0.0502053797245026,-0.0642518326640129,-0.0514101833105087,0.0176050812005997,-0.0419722869992256,0.0100067220628262,-0.0071497159078717,-0.0115621844306588,0.0351673848927021,-0.0655987560749054,0.0717251002788544,-0.0270976144820452,-0.0191318076103926,0.0542888231575489,0.0582868158817291,-0.0387847162783146,0.0641453489661217,0.0329337045550346,-0.0834070146083832,0.0369757786393166,0.0672186613082886,-0.0325757078826427,0.0332762561738491,0.0527692362666130,-0.0273521263152361,0.0333201177418232,0.0541573762893677,-0.0646386072039604,0.0777605324983597,0.0291225425899029,-0.0224268976598978,0.0560213886201382,0.0571480281651020,0.0146070318296552,0.0608139969408512,-0.0481658838689327,0.0390584468841553,0.0637939870357513,-0.0335422977805138,-0.0760186761617661,0.0082048717886209,-0.0304306875914335,0.0197729524224997,0.0526282601058483,-0.0072774095460773,-0.0553203299641609,0.0367087386548519,0.0589734353125095,0.0243368521332741,-0.0653053373098373,0.0460725873708725,-0.0625891014933586,-0.0248281713575125,0.0403720922768116,0.0896200016140938,0.0222574248909950,0.0795524194836617,0.0410837493836880,-0.0643246397376060,-0.0181749686598778,0.0477455779910088,0.0946379452943802,-0.0252376496791840,0.0301593802869320,0.0164321698248386,-0.0425438806414604,-0.0276293866336346,0.0220086649060249,-0.0147785283625126,-0.0547438338398933,0.0610390752553940,-0.0535047240555286,0.1318525224924088,-0.0880129411816597,0.0287849493324757,0.0349303223192692,0.0306221172213554,0.0289121195673943,-0.0507494360208511,-0.0017259074375033,0.1039944812655449,-0.0493562147021294,-0.0724309012293816,-0.0332036726176739,-0.0317772962152958,-0.0195078290998936,0.0478496998548508,0.0836012437939644,-0.0945489481091499,-0.0739059746265411,0.0154858371242881,0.0316831842064857,0.0885122343897820,0.0730392262339592,-0.0254385601729155,0.0268723312765360,0.0662548542022705,-0.0726531445980072,0.0148941846564412,-0.0324704125523567,-0.0095513034611940,-0.0605834871530533,-0.0041474578902125,0.0239271670579910,0.0732665061950684,-0.0001977994834306,-0.0440211929380894,-0.0559241659939289,0.0337668284773827,0.0204533152282238,0.0388532541692257,0.0233078114688396,-0.0696579664945602,-0.0812288969755173,0.0876256525516510,-0.0982915833592415,0.0439372695982456,0.0803308114409447,0.0043258923105896,-0.0676871016621590,-0.0430448576807976,0.0140971979126334,-0.0006977365119383,0.0629059597849846,0.0363535024225712,0.0038330443203449,-0.0282549057155848,0.0437277965247631,-0.0628207325935364,0.0758558511734009,-0.0538658201694489,-0.0873414278030396,0.1169617548584938,-0.0189358573406935,0.0329325199127197,0.0458765290677547,-0.0708098709583282,-0.0132551351562142,0.1109429448843002,-0.0564078912138939,0.0501470156013966,0.0349275991320610,-0.0017602501902729,-0.0099446512758732,0.0511090643703938,-0.0282149668782949,-0.0092365490272641,-0.0239945445209742,-0.0984287261962891,0.0608143322169781,0.1268274933099747,-0.0210872087627649,-0.0664177760481834,-0.0096679972484708,0.0052551757544279,-0.0218924935907125,-0.0216448921710253,0.0068594855256379,-0.0578615814447403,-0.0339807309210300,-0.0670885443687439,0.0234096124768257,0.0546900406479836,-0.0046413391828537,0.0336708202958107,-0.0286235194653273,-0.0572921149432659,0.0755087658762932,0.1110323294997215,-0.0788584202528000,-0.0028226152062416,-0.0055772615596652,-0.0340099371969700,0.0589162334799767,-0.0050636958330870,-0.0430874228477478,0.0795705169439316,0.0461989268660545,0.0397972650825977,0.0637444183230400,-0.0085007585585117,0.0369507223367691,0.1043055653572083,-0.0167850404977798,-0.0312256217002869,0.0658324435353279,0.1066920682787895,0.0337505303323269,-0.0513122752308846,0.0332388430833817,0.0059952978044748,-0.0626259297132492,0.0723263397812843,-0.0039041792042553,-0.0344867333769798,-0.0151296509429812,-0.0232837125658989,-0.0358237065374851,0.0068123266100883,-0.1001525893807411,-0.0290462486445904,0.0645876154303551,-0.0876091048121452,-0.0603054538369179,0.0197650808840990,0.0325452312827110,0.0241816006600857,0.0381059423089027,-0.0548497810959816,0.0343257449567318,0.0444078482687473,0.0150623591616750,0.0046236813068390,0.0414652079343796,-0.0518712140619755,0.0328429043292999,0.0418024472892284,-0.0997622087597847,0.0589060708880424,-0.0134748397395015,0.0318774841725826,0.0344618409872055,-0.1030314639210701};
    double input_bias[h1_dim] = {0.0603415183722973,-0.0026369967963547,0.0827889814972878,-0.0409779399633408,0.0069826240651309,0.0162163358181715,0.0600733384490013,0.0716262906789780,-0.0345557332038879,-0.0015794989885762,-0.0481101498007774,-0.0243590641766787,-0.0217789784073830,-0.0024893721565604,0.0559016205370426,-0.0706851705908775,0.1037617847323418,0.0195333044975996,0.0074770157225430,-0.0257171113044024,-0.0772516801953316,0.0243812799453735,-0.0413622409105301,0.0206927973777056,0.0490444488823414,-0.0563886277377605,0.0702051892876625,0.0206952150911093,0.0413447171449661,0.0499884225428104,-0.0437751747667789,-0.0624508783221245};

